{"learner":{"attributes":{"scikit_learn":"{\"_estimator_type\": \"classifier\"}"},"feature_names":[],"feature_types":[],"gradient_booster":{"model":{"cats":{"enc":[],"feature_segments":[],"sorted_idx":[]},"gbtree_model_param":{"num_parallel_tree":"1","num_trees":"150"},"iteration_indptr":[0,1,2,3,4,5,6,7,8,9,10,11,12,13,14,15,16,17,18,19,20,21,22,23,24,25,26,27,28,29,30,31,32,33,34,35,36,37,38,39,40,41,42,43,44,45,46,47,48,49,50,51,52,53,54,55,56,57,58,59,60,61,62,63,64,65,66,67,68,69,70,71,72,73,74,75,76,77,78,79,80,81,82,83,84,85,86,87,88,89,90,91,92,93,94,95,96,97,98,99,100,101,102,103,104,105,106,107,108,109,110,111,112,113,114,115,116,117,118,119,120,121,122,123,124,125,126,127,128,129,130,131,132,133,134,135,136,137,138,139,140,141,142,143,144,145,146,147,148,149,150],"tree_info":[0,0,0,0,0,0,0,0,0,0,0,0,0,0,0,0,0,0,0,0,0,0,0,0,0,0,0,0,0,0,0,0,0,0,0,0,0,0,0,0,0,0,0,0,0,0,0,0,0,0,0,0,0,0,0,0,0,0,0,0,0,0,0,0,0,0,0,0,0,0,0,0,0,0,0,0,0,0,0,0,0,0,0,0,0,0,0,0,0,0,0,0,0,0,0,0,0,0,0,0,0,0,0,0,0,0,0,0,0,0,0,0,0,0,0,0,0,0,0,0,0,0,0,0,0,0,0,0,0,0,0,0,0,0,0,0,0,0,0,0,0,0,0,0,0,0,0,0,0,0],"trees":[{"base_weights":[3.642506E-8,1.4183977E0,-9.8353915E-2,-9.2156865E-2,9.862069E-2],"categories":[],"categories_nodes":[],"categories_segments":[],"categories_sizes":[],"default_left":[0,0,0,0,0],"id":0,"left_children":[1,3,-1,-1,-1],"loss_changes":[4.045644E2,1.5587039E2,0E0,0E0,0E0],"parents":[2147483647,0,0,1,1],"right_children":[2,4,-1,-1,-1],"split_conditions":[7.549744E-1,4.705953E-1,-9.8353915E-2,-9.2156865E-2,9.862069E-2],"split_indices":[91,544,0,0,0],"split_type":[0,0,0,0,0],"sum_hessian":[1.43E2,8.325E1,5.975E1,1.175E1,7.15E1],"tree_param":{"num_deleted":"0","num_feature":"1000","num_nodes":"5","size_leaf_vector":"1"}},{"base_weights":[-6.3812255E-4,1.3507955E0,-9.3743674E-2,-8.8085525E-2,9.398662E-2],"categories":[],"categories_nodes":[],"categories_segments":[],"categories_sizes":[],"default_left":[0,0,0,0,0],"id":1,"left_children":[1,3,-1,-1,-1],"loss_changes":[3.664027E2,1.416872E2,0E0,0E0,0E0],"parents":[2147483647,0,0,1,1],"right_children":[2,4,-1,-1,-1],"split_conditions":[7.549744E-1,4.705953E-1,-9.3743674E-2,-8.8085525E-2,9.398662E-2],"split_indices":[91,544,0,0,0],"split_type":[0,0,0,0,0],"sum_hessian":[1.4265726E2,8.305152E1,5.9605736E1,1.1725088E1,7.132643E1],"tree_param":{"num_deleted":"0","num_feature":"1000","num_nodes":"5","size_leaf_vector":"1"}},{"base_weights":[-1.2209283E-3,1.2920746E0,-8.974542E-2,-8.450306E-2,8.997025E-2],"categories":[],"categories_nodes":[],"categories_segments":[],"categories_sizes":[],"default_left":[0,0,0,0,0],"id":2,"left_children":[1,3,-1,-1,-1],"loss_changes":[3.3334586E2,1.2936465E2,0E0,0E0,0E0],"parents":[2147483647,0,0,1,1],"right_children":[2,4,-1,-1,-1],"split_conditions":[7.549744E-1,4.705953E-1,-8.974542E-2,-8.450306E-2,8.997025E-2],"split_indices":[91,544,0,0,0],"split_type":[0,0,0,0,0],"sum_hessian":[1.416982E2,8.249605E1,5.9202152E1,1.1655084E1,7.084096E1],"tree_param":{"num_deleted":"0","num_feature":"1000","num_nodes":"5","size_leaf_vector":"1"}},{"base_weights":[-1.760937E-3,1.2406139E0,-8.624728E-2,-8.1326656E-2,8.64584E-2],"categories":[],"categories_nodes":[],"categories_segments":[],"categories_sizes":[],"default_left":[0,0,0,0,0],"id":3,"left_children":[1,3,-1,-1,-1],"loss_changes":[3.0446304E2,1.18568184E2,0E0,0E0,0E0],"parents":[2147483647,0,0,1,1],"right_children":[2,4,-1,-1,-1],"split_conditions":[7.549744E-1,4.705953E-1,-8.624728E-2,-8.1326656E-2,8.64584E-2],"split_indices":[91,544,0,0,0],"split_type":[0,0,0,0,0],"sum_hessian":[1.4021693E2,8.163796E1,5.8578968E1,1.1546492E1,7.009147E1],"tree_param":{"num_deleted":"0","num_feature":"1000","num_nodes":"5","size_leaf_vector":"1"}},{"base_weights":[-2.26864E-3,1.1951629E0,-8.3163194E-2,-7.849097E-2,8.336394E-2],"categories":[],"categories_nodes":[],"categories_segments":[],"categories_sizes":[],"default_left":[0,0,0,0,0],"id":4,"left_children":[1,3,-1,-1,-1],"loss_changes":[2.7903745E2,1.09039375E2,0E0,0E0,0E0],"parents":[2147483647,0,0,1,1],"right_children":[2,4,-1,-1,-1],"split_conditions":[7.549744E-1,4.705953E-1,-8.3163194E-2,-7.849097E-2,8.336394E-2],"split_indices":[91,544,0,0,0],"split_type":[0,0,0,0,0],"sum_hessian":[1.382959E2,8.052495E1,5.7770954E1,1.1405093E1,6.911985E1],"tree_param":{"num_deleted":"0","num_feature":"1000","num_nodes":"5","size_leaf_vector":"1"}},{"base_weights":[-2.7513138E-3,1.1547424E0,-8.042573E-2,-7.594382E-2,8.061878E-2],"categories":[],"categories_nodes":[],"categories_segments":[],"categories_sizes":[],"default_left":[0,0,0,0,0],"id":5,"left_children":[1,3,-1,-1,-1],"loss_changes":[2.5650793E2,1.0057526E2,0E0,0E0,0E0],"parents":[2147483647,0,0,1,1],"right_children":[2,4,-1,-1,-1],"split_conditions":[7.549744E-1,4.705953E-1,-8.042573E-2,-7.594382E-2,8.061878E-2],"split_indices":[91,544,0,0,0],"split_type":[0,0,0,0,0],"sum_hessian":[1.360075E2,7.919889E1,5.6808617E1,1.1236014E1,6.7962875E1],"tree_param":{"num_deleted":"0","num_feature":"1000","num_nodes":"5","size_leaf_vector":"1"}},{"base_weights":[-3.2155355E-3,1.1185725E0,-7.7981316E-2,-7.364291E-2,7.816877E-2],"categories":[],"categories_nodes":[],"categories_segments":[],"categories_sizes":[],"default_left":[0,0,0,0,0],"id":6,"left_children":[1,3,-1,-1,-1],"loss_changes":[2.3642848E2,9.301416E1,0E0,0E0,0E0],"parents":[2147483647,0,0,1,1],"right_children":[2,4,-1,-1,-1],"split_conditions":[7.549744E-1,4.705953E-1,-7.7981316E-2,-7.364291E-2,7.816877E-2],"split_indices":[91,544,0,0,0],"split_type":[0,0,0,0,0],"sum_hessian":[1.3341518E2,7.7696495E1,5.571869E1,1.1043802E1,6.665269E1],"tree_param":{"num_deleted":"0","num_feature":"1000","num_nodes":"5","size_leaf_vector":"1"}},{"base_weights":[-3.6659853E-3,1.0860261E0,-7.578682E-2,-7.15537E-2,7.597042E-2],"categories":[],"categories_nodes":[],"categories_segments":[],"categories_sizes":[],"default_left":[0,0,0,0,0],"id":7,"left_children":[1,3,-1,-1,-1],"loss_changes":[2.1844043E2,8.622566E1,0E0,0E0,0E0],"parents":[2147483647,0,0,1,1],"right_children":[2,4,-1,-1,-1],"split_conditions":[7.549744E-1,4.705953E-1,-7.578682E-2,-7.15537E-2,7.597042E-2],"split_indices":[91,544,0,0,0],"split_type":[0,0,0,0,0],"sum_hessian":[1.3057462E2,7.605E1,5.452461E1,1.08324795E1,6.521753E1],"tree_param":{"num_deleted":"0","num_feature":"1000","num_nodes":"5","size_leaf_vector":"1"}},{"base_weights":[-4.10643E-3,1.0565917E0,-7.380711E-2,-6.964762E-2,7.398834E-2],"categories":[],"categories_nodes":[],"categories_segments":[],"categories_sizes":[],"default_left":[0,0,0,0,0],"id":8,"left_children":[1,3,-1,-1,-1],"loss_changes":[2.0225168E2,8.010336E1,0E0,0E0,0E0],"parents":[2147483647,0,0,1,1],"right_children":[2,4,-1,-1,-1],"split_conditions":[7.549744E-1,4.705953E-1,-7.380711E-2,-6.964762E-2,7.398834E-2],"split_indices":[91,544,0,0,0],"split_type":[0,0,0,0,0],"sum_hessian":[1.2753455E2,7.428766E1,5.32469E1,1.0605598E1,6.368206E1],"tree_param":{"num_deleted":"0","num_feature":"1000","num_nodes":"5","size_leaf_vector":"1"}},{"base_weights":[-4.540454E-3,1.0298483E0,-7.201331E-2,-6.790086E-2,7.219341E-2],"categories":[],"categories_nodes":[],"categories_segments":[],"categories_sizes":[],"default_left":[0,0,0,0,0],"id":9,"left_children":[1,3,-1,-1,-1],"loss_changes":[1.8762209E2,7.455952E1,0E0,0E0,0E0],"parents":[2147483647,0,0,1,1],"right_children":[2,4,-1,-1,-1],"split_conditions":[7.549744E-1,4.705953E-1,-7.201331E-2,-6.790086E-2,7.219341E-2],"split_indices":[91,544,0,0,0],"split_type":[0,0,0,0,0],"sum_hessian":[1.2433768E2,7.2434166E1,5.190351E1,1.0366295E1,6.206787E1],"tree_param":{"num_deleted":"0","num_feature":"1000","num_nodes":"5","size_leaf_vector":"1"}},{"base_weights":[-4.971092E-3,1.0054457E0,-7.038143E-2,-6.6293426E-2,7.056142E-2],"categories":[],"categories_nodes":[],"categories_segments":[],"categories_sizes":[],"default_left":[0,0,0,0,0],"id":10,"left_children":[1,3,-1,-1,-1],"loss_changes":[1.7435217E2,6.952112E1,0E0,0E0,0E0],"parents":[2147483647,0,0,1,1],"right_children":[2,4,-1,-1,-1],"split_conditions":[7.549744E-1,4.705953E-1,-7.038143E-2,-6.6293426E-2,7.056142E-2],"split_indices":[91,544,0,0,0],"split_type":[0,0,0,0,0],"sum_hessian":[1.2102124E2,7.0511116E1,5.0510124E1,1.0117327E1,6.039379E1],"tree_param":{"num_deleted":"0","num_feature":"1000","num_nodes":"5","size_leaf_vector":"1"}},{"base_weights":[-5.400226E-3,9.8309046E-1,-6.889134E-2,-6.480836E-2,6.9072165E-2],"categories":[],"categories_nodes":[],"categories_segments":[],"categories_sizes":[],"default_left":[0,0,0,0,0],"id":11,"left_children":[1,3,-1,-1,-1],"loss_changes":[1.6227504E2,6.492695E1,0E0,0E0,0E0],"parents":[2147483647,0,0,1,1],"right_children":[2,4,-1,-1,-1],"split_conditions":[7.549744E-1,4.705953E-1,-6.889134E-2,-6.480836E-2,6.9072165E-2],"split_indices":[91,544,0,0,0],"split_type":[0,0,0,0,0],"sum_hessian":[1.1761776E2,6.853738E1,4.9080387E1,9.86112E0,5.8676254E1],"tree_param":{"num_deleted":"0","num_feature":"1000","num_nodes":"5","size_leaf_vector":"1"}},{"base_weights":[-5.8304886E-3,9.625345E-1,-6.752607E-2,-6.343122E-2,6.770854E-2],"categories":[],"categories_nodes":[],"categories_segments":[],"categories_sizes":[],"default_left":[0,0,0,0,0],"id":12,"left_children":[1,3,-1,-1,-1],"loss_changes":[1.512498E2,6.0725212E1,0E0,0E0,0E0],"parents":[2147483647,0,0,1,1],"right_children":[2,4,-1,-1,-1],"split_conditions":[7.549744E-1,4.705953E-1,-6.752607E-2,-6.343122E-2,6.770854E-2],"split_indices":[91,544,0,0,0],"split_type":[0,0,0,0,0],"sum_hessian":[1.1415547E2,6.65293E1,4.7626175E1,9.599795E0,5.69295E1],"tree_param":{"num_deleted":"0","num_feature":"1000","num_nodes":"5","size_leaf_vector":"1"}},{"base_weights":[-6.263274E-3,9.435669E-1,-6.6271186E-2,-6.2149614E-2,6.645603E-2],"categories":[],"categories_nodes":[],"categories_segments":[],"categories_sizes":[],"default_left":[0,0,0,0,0],"id":13,"left_children":[1,3,-1,-1,-1],"loss_changes":[1.4115683E2,5.6871876E1,0E0,0E0,0E0],"parents":[2147483647,0,0,1,1],"right_children":[2,4,-1,-1,-1],"split_conditions":[7.549744E-1,4.705953E-1,-6.6271186E-2,-6.2149614E-2,6.645603E-2],"split_indices":[91,544,0,0,0],"split_type":[0,0,0,0,0],"sum_hessian":[1.1065891E2,6.450113E1,4.6157787E1,9.335206E0,5.5165924E1],"tree_param":{"num_deleted":"0","num_feature":"1000","num_nodes":"5","size_leaf_vector":"1"}},{"base_weights":[-6.7004357E-3,9.2600685E-1,-6.5114304E-2,-6.0952853E-2,6.530221E-2],"categories":[],"categories_nodes":[],"categories_segments":[],"categories_sizes":[],"default_left":[0,0,0,0,0],"id":14,"left_children":[1,3,-1,-1,-1],"loss_changes":[1.318937E2,5.3329185E1,0E0,0E0,0E0],"parents":[2147483647,0,0,1,1],"right_children":[2,4,-1,-1,-1],"split_conditions":[7.549744E-1,4.705953E-1,-6.5114304E-2,-6.0952853E-2,6.530221E-2],"split_indices":[91,544,0,0,0],"split_type":[0,0,0,0,0],"sum_hessian":[1.07149254E2,6.2465134E1,4.4684124E1,9.068966E0,5.3396168E1],"tree_param":{"num_deleted":"0","num_feature":"1000","num_nodes":"5","size_leaf_vector":"1"}},{"base_weights":[-7.1431925E-3,9.0969825E-1,-6.404477E-2,-5.983165E-2,6.423635E-2],"categories":[],"categories_nodes":[],"categories_segments":[],"categories_sizes":[],"default_left":[0,0,0,0,0],"id":15,"left_children":[1,3,-1,-1,-1],"loss_changes":[1.23372406E2,5.0064564E1,0E0,0E0,0E0],"parents":[2147483647,0,0,1,1],"right_children":[2,4,-1,-1,-1],"split_conditions":[7.549744E-1,4.705953E-1,-6.404477E-2,-5.983165E-2,6.423635E-2],"split_indices":[91,544,0,0,0],"split_type":[0,0,0,0,0],"sum_hessian":[1.0364475E2,6.0431927E1,4.321283E1,8.802473E0,5.162945E1],"tree_param":{"num_deleted":"0","num_feature":"1000","num_nodes":"5","size_leaf_vector":"1"}},{"base_weights":[-7.593453E-3,8.945056E-1,-6.305337E-2,-5.8777917E-2,6.324919E-2],"categories":[],"categories_nodes":[],"categories_segments":[],"categories_sizes":[],"default_left":[0,0,0,0,0],"id":16,"left_children":[1,3,-1,-1,-1],"loss_changes":[1.15516624E2,4.70498E1,0E0,0E0,0E0],"parents":[2147483647,0,0,1,1],"right_children":[2,4,-1,-1,-1],"split_conditions":[7.549744E-1,4.705953E-1,-6.305337E-2,-5.8777917E-2,6.324919E-2],"split_indices":[91,544,0,0,0],"split_type":[0,0,0,0,0],"sum_hessian":[1.0016101E2,5.841054E1,4.175047E1,8.536935E0,4.9873608E1],"tree_param":{"num_deleted":"0","num_feature":"1000","num_nodes":"5","size_leaf_vector":"1"}},{"base_weights":[-8.051765E-3,8.803114E-1,-6.2132042E-2,-5.7784546E-2,6.2332656E-2],"categories":[],"categories_nodes":[],"categories_segments":[],"categories_sizes":[],"default_left":[0,0,0,0,0],"id":17,"left_children":[1,3,-1,-1,-1],"loss_changes":[1.0826021E2,4.4260365E1,0E0,0E0,0E0],"parents":[2147483647,0,0,1,1],"right_children":[2,4,-1,-1,-1],"split_conditions":[7.549744E-1,4.705953E-1,-6.2132042E-2,-5.7784546E-2,6.2332656E-2],"split_indices":[91,544,0,0,0],"split_type":[0,0,0,0,0],"sum_hessian":[9.6711395E1,5.6408764E1,4.0302635E1,8.273392E0,4.8135372E1],"tree_param":{"num_deleted":"0","num_feature":"1000","num_nodes":"5","size_leaf_vector":"1"}},{"base_weights":[-8.519316E-3,8.670122E-1,-6.127375E-2,-5.6845326E-2,6.1479684E-2],"categories":[],"categories_nodes":[],"categories_segments":[],"categories_sizes":[],"default_left":[0,0,0,0,0],"id":18,"left_children":[1,3,-1,-1,-1],"loss_changes":[1.0154519E2,4.1674744E1,0E0,0E0,0E0],"parents":[2147483647,0,0,1,1],"right_children":[2,4,-1,-1,-1],"split_conditions":[7.549744E-1,4.705953E-1,-6.127375E-2,-5.6845326E-2,6.1479684E-2],"split_indices":[91,544,0,0,0],"split_type":[0,0,0,0,0],"sum_hessian":[9.330717E1,5.4433132E1,3.887404E1,8.012725E0,4.6420406E1],"tree_param":{"num_deleted":"0","num_feature":"1000","num_nodes":"5","size_leaf_vector":"1"}},{"base_weights":[-8.997647E-3,8.5451674E-1,-6.0472287E-2,-5.5954732E-2,6.0684044E-2],"categories":[],"categories_nodes":[],"categories_segments":[],"categories_sizes":[],"default_left":[0,0,0,0,0],"id":19,"left_children":[1,3,-1,-1,-1],"loss_changes":[9.532073E1,3.9274014E1,0E0,0E0,0E0],"parents":[2147483647,0,0,1,1],"right_children":[2,4,-1,-1,-1],"split_conditions":[7.549744E-1,4.705953E-1,-6.0472287E-2,-5.5954732E-2,6.0684044E-2],"split_indices":[91,544,0,0,0],"split_type":[0,0,0,0,0],"sum_hessian":[8.99578E1,5.2489136E1,3.746867E1,7.7556896E0,4.4733444E1],"tree_param":{"num_deleted":"0","num_feature":"1000","num_nodes":"5","size_leaf_vector":"1"}},{"base_weights":[-9.487235E-3,8.4274465E-1,-5.9722193E-2,-5.5107888E-2,5.9940245E-2],"categories":[],"categories_nodes":[],"categories_segments":[],"categories_sizes":[],"default_left":[0,0,0,0,0],"id":20,"left_children":[1,3,-1,-1,-1],"loss_changes":[8.954205E1,3.704152E1,0E0,0E0,0E0],"parents":[2147483647,0,0,1,1],"right_children":[2,4,-1,-1,-1],"split_conditions":[7.549744E-1,4.705953E-1,-5.9722193E-2,-5.5107888E-2,5.9940245E-2],"split_indices":[91,544,0,0,0],"split_type":[0,0,0,0,0],"sum_hessian":[8.6671196E1,5.058139E1,3.608981E1,7.502915E0,4.3078472E1],"tree_param":{"num_deleted":"0","num_feature":"1000","num_nodes":"5","size_leaf_vector":"1"}},{"base_weights":[-9.989518E-3,8.316241E-1,-5.901859E-2,-5.430044E-2,5.9243422E-2],"categories":[],"categories_nodes":[],"categories_segments":[],"categories_sizes":[],"default_left":[0,0,0,0,0],"id":21,"left_children":[1,3,-1,-1,-1],"loss_changes":[8.416944E1,3.4962433E1,0E0,0E0,0E0],"parents":[2147483647,0,0,1,1],"right_children":[2,4,-1,-1,-1],"split_conditions":[7.549744E-1,4.705953E-1,-5.901859E-2,-5.430044E-2,5.9243422E-2],"split_indices":[91,544,0,0,0],"split_type":[0,0,0,0,0],"sum_hessian":[8.345382E1,4.871363E1,3.474019E1,7.2549267E0,4.1458706E1],"tree_param":{"num_deleted":"0","num_feature":"1000","num_nodes":"5","size_leaf_vector":"1"}},{"base_weights":[-1.0504869E-2,8.210917E-1,-5.835715E-2,-5.3528525E-2,5.858923E-2],"categories":[],"categories_nodes":[],"categories_segments":[],"categories_sizes":[],"default_left":[0,0,0,0,0],"id":22,"left_children":[1,3,-1,-1,-1],"loss_changes":[7.916775E1,3.3023647E1,0E0,0E0,0E0],"parents":[2147483647,0,0,1,1],"right_children":[2,4,-1,-1,-1],"split_conditions":[7.549744E-1,4.705953E-1,-5.835715E-2,-5.3528525E-2,5.858923E-2],"split_indices":[91,544,0,0,0],"split_type":[0,0,0,0,0],"sum_hessian":[8.031091E1,4.6888935E1,3.3421978E1,7.012155E0,3.987678E1],"tree_param":{"num_deleted":"0","num_feature":"1000","num_nodes":"5","size_leaf_vector":"1"}},{"base_weights":[-1.103447E-2,8.110901E-1,-5.7733994E-2,-5.278867E-2,5.7973802E-2],"categories":[],"categories_nodes":[],"categories_segments":[],"categories_sizes":[],"default_left":[0,0,0,0,0],"id":23,"left_children":[1,3,-1,-1,-1],"loss_changes":[7.450555E1,3.1213394E1,0E0,0E0,0E0],"parents":[2147483647,0,0,1,1],"right_children":[2,4,-1,-1,-1],"split_conditions":[7.549744E-1,4.705953E-1,-5.7733994E-2,-5.278867E-2,5.7973802E-2],"split_indices":[91,544,0,0,0],"split_type":[0,0,0,0,0],"sum_hessian":[7.724666E1,4.5109726E1,3.2136932E1,6.77495E0,3.8334778E1],"tree_param":{"num_deleted":"0","num_feature":"1000","num_nodes":"5","size_leaf_vector":"1"}},{"base_weights":[-1.1579182E-2,8.0156785E-1,-5.7145655E-2,-5.2077778E-2,5.7393637E-2],"categories":[],"categories_nodes":[],"categories_segments":[],"categories_sizes":[],"default_left":[0,0,0,0,0],"id":24,"left_children":[1,3,-1,-1,-1],"loss_changes":[7.015476E1,2.9521187E1,0E0,0E0,0E0],"parents":[2147483647,0,0,1,1],"right_children":[2,4,-1,-1,-1],"split_conditions":[7.549744E-1,4.705953E-1,-5.7145655E-2,-5.2077778E-2,5.7393637E-2],"split_indices":[91,544,0,0,0],"split_type":[0,0,0,0,0],"sum_hessian":[7.426424E1,4.3377857E1,3.0886381E1,6.543586E0,3.683427E1],"tree_param":{"num_deleted":"0","num_feature":"1000","num_nodes":"5","size_leaf_vector":"1"}},{"base_weights":[-1.213943E-2,7.924789E-1,-5.658899E-2,-5.139305E-2,5.6845613E-2],"categories":[],"categories_nodes":[],"categories_segments":[],"categories_sizes":[],"default_left":[0,0,0,0,0],"id":25,"left_children":[1,3,-1,-1,-1],"loss_changes":[6.609027E1,2.7937584E1,0E0,0E0,0E0],"parents":[2147483647,0,0,1,1],"right_children":[2,4,-1,-1,-1],"split_conditions":[7.549744E-1,4.705953E-1,-5.658899E-2,-5.139305E-2,5.6845613E-2],"split_indices":[91,544,0,0,0],"split_type":[0,0,0,0,0],"sum_hessian":[7.136606E1,4.1694748E1,2.967131E1,6.3182755E0,3.5376472E1],"tree_param":{"num_deleted":"0","num_feature":"1000","num_nodes":"5","size_leaf_vector":"1"}},{"base_weights":[-1.2716443E-2,7.837811E-1,-5.606116E-2,-5.0731976E-2,5.6326885E-2],"categories":[],"categories_nodes":[],"categories_segments":[],"categories_sizes":[],"default_left":[0,0,0,0,0],"id":26,"left_children":[1,3,-1,-1,-1],"loss_changes":[6.228939E1,2.645408E1,0E0,0E0,0E0],"parents":[2147483647,0,0,1,1],"right_children":[2,4,-1,-1,-1],"split_conditions":[7.549744E-1,4.705953E-1,-5.606116E-2,-5.0731976E-2,5.6326885E-2],"split_indices":[91,544,0,0,0],"split_type":[0,0,0,0,0],"sum_hessian":[6.855375E1,4.0061337E1,2.849241E1,6.09917E0,3.3962166E1],"tree_param":{"num_deleted":"0","num_feature":"1000","num_nodes":"5","size_leaf_vector":"1"}},{"base_weights":[-1.3310718E-2,7.7543646E-1,-5.5559605E-2,-5.009229E-2,5.5834886E-2],"categories":[],"categories_nodes":[],"categories_segments":[],"categories_sizes":[],"default_left":[0,0,0,0,0],"id":27,"left_children":[1,3,-1,-1,-1],"loss_changes":[5.8731712E1,2.5063005E1,0E0,0E0,0E0],"parents":[2147483647,0,0,1,1],"right_children":[2,4,-1,-1,-1],"split_conditions":[7.549744E-1,4.705953E-1,-5.5559605E-2,-5.009229E-2,5.5834886E-2],"split_indices":[91,544,0,0,0],"split_type":[0,0,0,0,0],"sum_hessian":[6.582833E1,3.847824E1,2.7350092E1,5.8863773E0,3.259186E1],"tree_param":{"num_deleted":"0","num_feature":"1000","num_nodes":"5","size_leaf_vector":"1"}},{"base_weights":[-1.3923143E-2,7.6741046E-1,-5.5081982E-2,-4.9471956E-2,5.5367287E-2],"categories":[],"categories_nodes":[],"categories_segments":[],"categories_sizes":[],"default_left":[0,0,0,0,0],"id":28,"left_children":[1,3,-1,-1,-1],"loss_changes":[5.539876E1,2.3757412E1,0E0,0E0,0E0],"parents":[2147483647,0,0,1,1],"right_children":[2,4,-1,-1,-1],"split_conditions":[7.549744E-1,4.705953E-1,-5.5081982E-2,-4.9471956E-2,5.5367287E-2],"split_indices":[91,544,0,0,0],"split_type":[0,0,0,0,0],"sum_hessian":[6.3190277E1,3.6945724E1,2.624455E1,5.679958E0,3.1265768E1],"tree_param":{"num_deleted":"0","num_feature":"1000","num_nodes":"5","size_leaf_vector":"1"}},{"base_weights":[-1.4553799E-2,7.596718E-1,-5.462615E-2,-4.886912E-2,5.4921955E-2],"categories":[],"categories_nodes":[],"categories_segments":[],"categories_sizes":[],"default_left":[0,0,0,0,0],"id":29,"left_children":[1,3,-1,-1,-1],"loss_changes":[5.2273838E1,2.2531004E1,0E0,0E0,0E0],"parents":[2147483647,0,0,1,1],"right_children":[2,4,-1,-1,-1],"split_conditions":[7.549744E-1,4.705953E-1,-5.462615E-2,-4.886912E-2,5.4921955E-2],"split_indices":[91,544,0,0,0],"split_type":[0,0,0,0,0],"sum_hessian":[6.0639606E1,3.5463833E1,2.5175776E1,5.4799376E0,2.9983894E1],"tree_param":{"num_deleted":"0","num_feature":"1000","num_nodes":"5","size_leaf_vector":"1"}},{"base_weights":[-1.52043225E-2,7.52191E-1,-5.4190166E-2,-4.8282128E-2,5.449694E-2],"categories":[],"categories_nodes":[],"categories_segments":[],"categories_sizes":[],"default_left":[0,0,0,0,0],"id":30,"left_children":[1,3,-1,-1,-1],"loss_changes":[4.9341694E1,2.1378025E1,0E0,0E0,0E0],"parents":[2147483647,0,0,1,1],"right_children":[2,4,-1,-1,-1],"split_conditions":[7.549744E-1,4.705953E-1,-5.4190166E-2,-4.8282128E-2,5.449694E-2],"split_indices":[91,544,0,0,0],"split_type":[0,0,0,0,0],"sum_hessian":[5.8175877E1,3.4032288E1,2.4143585E1,5.2863064E0,2.8745983E1],"tree_param":{"num_deleted":"0","num_feature":"1000","num_nodes":"5","size_leaf_vector":"1"}},{"base_weights":[-1.5874816E-2,7.4494195E-1,-5.3772237E-2,-4.770945E-2,5.409045E-2],"categories":[],"categories_nodes":[],"categories_segments":[],"categories_sizes":[],"default_left":[0,0,0,0,0],"id":31,"left_children":[1,3,-1,-1,-1],"loss_changes":[4.6588478E1,2.029327E1,0E0,0E0,0E0],"parents":[2147483647,0,0,1,1],"right_children":[2,4,-1,-1,-1],"split_conditions":[7.549744E-1,4.705953E-1,-5.3772237E-2,-4.770945E-2,5.409045E-2],"split_indices":[91,544,0,0,0],"split_type":[0,0,0,0,0],"sum_hessian":[5.579834E1,3.2650684E1,2.3147655E1,5.099031E0,2.7551651E1],"tree_param":{"num_deleted":"0","num_feature":"1000","num_nodes":"5","size_leaf_vector":"1"}},{"base_weights":[-1.6566604E-2,7.378998E-1,-5.337071E-2,-4.714974E-2,5.3700842E-2],"categories":[],"categories_nodes":[],"categories_segments":[],"categories_sizes":[],"default_left":[0,0,0,0,0],"id":32,"left_children":[1,3,-1,-1,-1],"loss_changes":[4.4001537E1,1.9271944E1,0E0,0E0,0E0],"parents":[2147483647,0,0,1,1],"right_children":[2,4,-1,-1,-1],"split_conditions":[7.549744E-1,4.705953E-1,-5.337071E-2,-4.714974E-2,5.3700842E-2],"split_indices":[91,544,0,0,0],"split_type":[0,0,0,0,0],"sum_hessian":[5.3505924E1,3.1318386E1,2.2187538E1,4.91805E0,2.6400335E1],"tree_param":{"num_deleted":"0","num_feature":"1000","num_nodes":"5","size_leaf_vector":"1"}},{"base_weights":[-1.7279297E-2,7.310428E-1,-5.298407E-2,-4.6601765E-2,5.3326603E-2],"categories":[],"categories_nodes":[],"categories_segments":[],"categories_sizes":[],"default_left":[0,0,0,0,0],"id":33,"left_children":[1,3,-1,-1,-1],"loss_changes":[4.1569378E1,1.830969E1,0E0,0E0,0E0],"parents":[2147483647,0,0,1,1],"right_children":[2,4,-1,-1,-1],"split_conditions":[7.549744E-1,4.705953E-1,-5.298407E-2,-4.6601765E-2,5.3326603E-2],"split_indices":[91,544,0,0,0],"split_type":[0,0,0,0,0],"sum_hessian":[5.129737E1,3.003469E1,2.126268E1,4.7432823E0,2.5291409E1],"tree_param":{"num_deleted":"0","num_feature":"1000","num_nodes":"5","size_leaf_vector":"1"}},{"base_weights":[-1.8014016E-2,7.243499E-1,-5.261091E-2,-4.6064407E-2,5.2966326E-2],"categories":[],"categories_nodes":[],"categories_segments":[],"categories_sizes":[],"default_left":[0,0,0,0,0],"id":34,"left_children":[1,3,-1,-1,-1],"loss_changes":[3.9281372E1,1.7402493E1,0E0,0E0,0E0],"parents":[2147483647,0,0,1,1],"right_children":[2,4,-1,-1,-1],"split_conditions":[7.549744E-1,4.705953E-1,-5.261091E-2,-4.6064407E-2,5.2966326E-2],"split_indices":[91,544,0,0,0],"split_type":[0,0,0,0,0],"sum_hessian":[4.917115E1,2.8798708E1,2.0372444E1,4.5746317E0,2.4224075E1],"tree_param":{"num_deleted":"0","num_feature":"1000","num_nodes":"5","size_leaf_vector":"1"}},{"base_weights":[-1.8770976E-2,7.178023E-1,-5.2249935E-2,-4.5536663E-2,5.261873E-2],"categories":[],"categories_nodes":[],"categories_segments":[],"categories_sizes":[],"default_left":[0,0,0,0,0],"id":35,"left_children":[1,3,-1,-1,-1],"loss_changes":[3.7127842E1,1.6546675E1,0E0,0E0,0E0],"parents":[2147483647,0,0,1,1],"right_children":[2,4,-1,-1,-1],"split_conditions":[7.549744E-1,4.705953E-1,-5.2249935E-2,-4.5536663E-2,5.261873E-2],"split_indices":[91,544,0,0,0],"split_type":[0,0,0,0,0],"sum_hessian":[4.7125587E1,2.7609474E1,1.9516111E1,4.4119864E0,2.3197487E1],"tree_param":{"num_deleted":"0","num_feature":"1000","num_nodes":"5","size_leaf_vector":"1"}},{"base_weights":[-1.9551218E-2,7.113818E-1,-5.189992E-2,-4.501764E-2,5.228259E-2],"categories":[],"categories_nodes":[],"categories_segments":[],"categories_sizes":[],"default_left":[0,0,0,0,0],"id":36,"left_children":[1,3,-1,-1,-1],"loss_changes":[3.5099827E1,1.5738844E1,0E0,0E0,0E0],"parents":[2147483647,0,0,1,1],"right_children":[2,4,-1,-1,-1],"split_conditions":[7.549744E-1,4.705953E-1,-5.189992E-2,-4.501764E-2,5.228259E-2],"split_indices":[91,544,0,0,0],"split_type":[0,0,0,0,0],"sum_hessian":[4.515884E1,2.6465921E1,1.8692919E1,4.2552214E0,2.2210701E1],"tree_param":{"num_deleted":"0","num_feature":"1000","num_nodes":"5","size_leaf_vector":"1"}},{"base_weights":[-2.035571E-2,7.0507175E-1,-5.1559754E-2,-4.450652E-2,5.1956773E-2],"categories":[],"categories_nodes":[],"categories_segments":[],"categories_sizes":[],"default_left":[0,0,0,0,0],"id":37,"left_children":[1,3,-1,-1,-1],"loss_changes":[3.318908E1,1.4975875E1,0E0,0E0,0E0],"parents":[2147483647,0,0,1,1],"right_children":[2,4,-1,-1,-1],"split_conditions":[7.549744E-1,4.705953E-1,-5.1559754E-2,-4.450652E-2,5.1956773E-2],"split_indices":[91,544,0,0,0],"split_type":[0,0,0,0,0],"sum_hessian":[4.3268967E1,2.536692E1,1.7902048E1,4.1042037E0,2.1262716E1],"tree_param":{"num_deleted":"0","num_feature":"1000","num_nodes":"5","size_leaf_vector":"1"}},{"base_weights":[-2.1183895E-2,6.988577E-1,-5.122838E-2,-4.4002578E-2,5.1640254E-2],"categories":[],"categories_nodes":[],"categories_segments":[],"categories_sizes":[],"default_left":[0,0,0,0,0],"id":38,"left_children":[1,3,-1,-1,-1],"loss_changes":[3.1388092E1,1.4254897E1,0E0,0E0,0E0],"parents":[2147483647,0,0,1,1],"right_children":[2,4,-1,-1,-1],"split_conditions":[7.549744E-1,4.705953E-1,-5.122838E-2,-4.4002578E-2,5.1640254E-2],"split_indices":[91,544,0,0,0],"split_type":[0,0,0,0,0],"sum_hessian":[4.1453976E1,2.4311335E1,1.7142641E1,3.9587924E0,2.0352543E1],"tree_param":{"num_deleted":"0","num_feature":"1000","num_nodes":"5","size_leaf_vector":"1"}},{"base_weights":[-2.2036096E-2,6.927257E-1,-5.090482E-2,-4.3505173E-2,5.1332068E-2],"categories":[],"categories_nodes":[],"categories_segments":[],"categories_sizes":[],"default_left":[0,0,0,0,0],"id":39,"left_children":[1,3,-1,-1,-1],"loss_changes":[2.9689844E1,1.3573247E1,0E0,0E0,0E0],"parents":[2147483647,0,0,1,1],"right_children":[2,4,-1,-1,-1],"split_conditions":[7.549744E-1,4.705953E-1,-5.090482E-2,-4.3505173E-2,5.1332068E-2],"split_indices":[91,544,0,0,0],"split_type":[0,0,0,0,0],"sum_hessian":[3.9711784E1,2.329796E1,1.6413822E1,3.8188398E0,1.947912E1],"tree_param":{"num_deleted":"0","num_feature":"1000","num_nodes":"5","size_leaf_vector":"1"}},{"base_weights":[-2.2913922E-2,6.866616E-1,-5.058817E-2,-4.301372E-2,5.103125E-2],"categories":[],"categories_nodes":[],"categories_segments":[],"categories_sizes":[],"default_left":[0,0,0,0,0],"id":40,"left_children":[1,3,-1,-1,-1],"loss_changes":[2.8087828E1,1.29284525E1,0E0,0E0,0E0],"parents":[2147483647,0,0,1,1],"right_children":[2,4,-1,-1,-1],"split_conditions":[7.549744E-1,4.705953E-1,-5.058817E-2,-4.301372E-2,5.103125E-2],"split_indices":[91,544,0,0,0],"split_type":[0,0,0,0,0],"sum_hessian":[3.804022E1,2.232553E1,1.5714688E1,3.6841938E0,1.8641335E1],"tree_param":{"num_deleted":"0","num_feature":"1000","num_nodes":"5","size_leaf_vector":"1"}},{"base_weights":[-2.3816768E-2,6.8065417E-1,-5.0277557E-2,-4.2527717E-2,5.0736982E-2],"categories":[],"categories_nodes":[],"categories_segments":[],"categories_sizes":[],"default_left":[0,0,0,0,0],"id":41,"left_children":[1,3,-1,-1,-1],"loss_changes":[2.657608E1,1.23182335E1,0E0,0E0,0E0],"parents":[2147483647,0,0,1,1],"right_children":[2,4,-1,-1,-1],"split_conditions":[7.549744E-1,4.705953E-1,-5.0277557E-2,-4.2527717E-2,5.0736982E-2],"split_indices":[91,544,0,0,0],"split_type":[0,0,0,0,0],"sum_hessian":[3.6437138E1,2.139281E1,1.5044327E1,3.5546994E0,1.7838112E1],"tree_param":{"num_deleted":"0","num_feature":"1000","num_nodes":"5","size_leaf_vector":"1"}},{"base_weights":[-2.4746612E-2,6.7469084E-1,-4.9972184E-2,-4.2046707E-2,5.044843E-2],"categories":[],"categories_nodes":[],"categories_segments":[],"categories_sizes":[],"default_left":[0,0,0,0,0],"id":42,"left_children":[1,3,-1,-1,-1],"loss_changes":[2.5148981E1,1.1740466E1,0E0,0E0,0E0],"parents":[2147483647,0,0,1,1],"right_children":[2,4,-1,-1,-1],"split_conditions":[7.549744E-1,4.705953E-1,-4.9972184E-2,-4.2046707E-2,5.044843E-2],"split_indices":[91,544,0,0,0],"split_type":[0,0,0,0,0],"sum_hessian":[3.4900314E1,2.0498497E1,1.4401818E1,3.4301991E0,1.7068298E1],"tree_param":{"num_deleted":"0","num_feature":"1000","num_nodes":"5","size_leaf_vector":"1"}},{"base_weights":[-2.5701266E-2,6.6876286E-1,-4.9671292E-2,-4.15703E-2,5.0164856E-2],"categories":[],"categories_nodes":[],"categories_segments":[],"categories_sizes":[],"default_left":[0,0,0,0,0],"id":43,"left_children":[1,3,-1,-1,-1],"loss_changes":[2.3801458E1,1.1193195E1,0E0,0E0,0E0],"parents":[2147483647,0,0,1,1],"right_children":[2,4,-1,-1,-1],"split_conditions":[7.549744E-1,4.705953E-1,-4.9671292E-2,-4.15703E-2,5.0164856E-2],"split_indices":[91,544,0,0,0],"split_type":[0,0,0,0,0],"sum_hessian":[3.342764E1,1.9641397E1,1.3786241E1,3.3105352E0,1.6330862E1],"tree_param":{"num_deleted":"0","num_feature":"1000","num_nodes":"5","size_leaf_vector":"1"}},{"base_weights":[-2.6682219E-2,6.628598E-1,-4.9374186E-2,-4.109815E-2,4.9885545E-2],"categories":[],"categories_nodes":[],"categories_segments":[],"categories_sizes":[],"default_left":[0,0,0,0,0],"id":44,"left_children":[1,3,-1,-1,-1],"loss_changes":[2.2528685E1,1.0674584E1,0E0,0E0,0E0],"parents":[2147483647,0,0,1,1],"right_children":[2,4,-1,-1,-1],"split_conditions":[7.549744E-1,4.705953E-1,-4.9374186E-2,-4.109815E-2,4.9885545E-2],"split_indices":[91,544,0,0,0],"split_type":[0,0,0,0,0],"sum_hessian":[3.2016895E1,1.8820217E1,1.3196679E1,3.1955492E0,1.5624667E1],"tree_param":{"num_deleted":"0","num_feature":"1000","num_nodes":"5","size_leaf_vector":"1"}},{"base_weights":[-2.7690815E-2,6.569718E-1,-4.9080182E-2,-4.0629975E-2,4.960979E-2],"categories":[],"categories_nodes":[],"categories_segments":[],"categories_sizes":[],"default_left":[0,0,0,0,0],"id":45,"left_children":[1,3,-1,-1,-1],"loss_changes":[2.1326145E1,1.01829195E1,0E0,0E0,0E0],"parents":[2147483647,0,0,1,1],"right_children":[2,4,-1,-1,-1],"split_conditions":[7.549744E-1,4.705953E-1,-4.9080182E-2,-4.0629975E-2,4.960979E-2],"split_indices":[91,544,0,0,0],"split_type":[0,0,0,0,0],"sum_hessian":[3.0665888E1,1.8033669E1,1.263222E1,3.0850825E0,1.49485855E1],"tree_param":{"num_deleted":"0","num_feature":"1000","num_nodes":"5","size_leaf_vector":"1"}},{"base_weights":[-2.872515E-2,6.5109205E-1,-4.8788667E-2,-4.0165525E-2,4.9336996E-2],"categories":[],"categories_nodes":[],"categories_segments":[],"categories_sizes":[],"default_left":[0,0,0,0,0],"id":46,"left_children":[1,3,-1,-1,-1],"loss_changes":[2.018975E1,9.716629E0,0E0,0E0,0E0],"parents":[2147483647,0,0,1,1],"right_children":[2,4,-1,-1,-1],"split_conditions":[7.549744E-1,4.705953E-1,-4.8788667E-2,-4.0165525E-2,4.9336996E-2],"split_indices":[91,544,0,0,0],"split_type":[0,0,0,0,0],"sum_hessian":[2.9372528E1,1.7280565E1,1.2091961E1,2.9789789E0,1.4301587E1],"tree_param":{"num_deleted":"0","num_feature":"1000","num_nodes":"5","size_leaf_vector":"1"}},{"base_weights":[-2.9786825E-2,6.452118E-1,-4.8499044E-2,-3.970458E-2,4.9066536E-2],"categories":[],"categories_nodes":[],"categories_segments":[],"categories_sizes":[],"default_left":[0,0,0,0,0],"id":47,"left_children":[1,3,-1,-1,-1],"loss_changes":[1.911557E1,9.274224E0,0E0,0E0,0E0],"parents":[2147483647,0,0,1,1],"right_children":[2,4,-1,-1,-1],"split_conditions":[7.549744E-1,4.705953E-1,-4.8499044E-2,-3.970458E-2,4.9066536E-2],"split_indices":[91,544,0,0,0],"split_type":[0,0,0,0,0],"sum_hessian":[2.813467E1,1.6559654E1,1.1575017E1,2.877084E0,1.36825695E1],"tree_param":{"num_deleted":"0","num_feature":"1000","num_nodes":"5","size_leaf_vector":"1"}},{"base_weights":[-3.0876515E-2,6.3932395E-1,-4.8210766E-2,-3.9246973E-2,4.8797842E-2],"categories":[],"categories_nodes":[],"categories_segments":[],"categories_sizes":[],"default_left":[0,0,0,0,0],"id":48,"left_children":[1,3,-1,-1,-1],"loss_changes":[1.8099987E1,8.854317E0,0E0,0E0,0E0],"parents":[2147483647,0,0,1,1],"right_children":[2,4,-1,-1,-1],"split_conditions":[7.549744E-1,4.705953E-1,-4.8210766E-2,-3.9246973E-2,4.8797842E-2],"split_indices":[91,544,0,0,0],"split_type":[0,0,0,0,0],"sum_hessian":[2.6950228E1,1.5869714E1,1.1080515E1,2.779244E0,1.3090469E1],"tree_param":{"num_deleted":"0","num_feature":"1000","num_nodes":"5","size_leaf_vector":"1"}},{"base_weights":[-3.199157E-2,6.334236E-1,-4.792331E-2,-3.8792577E-2,4.8530404E-2],"categories":[],"categories_nodes":[],"categories_segments":[],"categories_sizes":[],"default_left":[0,0,0,0,0],"id":49,"left_children":[1,3,-1,-1,-1],"loss_changes":[1.7139677E1,8.455634E0,0E0,0E0,0E0],"parents":[2147483647,0,0,1,1],"right_children":[2,4,-1,-1,-1],"split_conditions":[7.549744E-1,4.705953E-1,-4.792331E-2,-3.8792577E-2,4.8530404E-2],"split_indices":[91,544,0,0,0],"split_type":[0,0,0,0,0],"sum_hessian":[2.581723E1,1.5209634E1,1.0607596E1,2.6853101E0,1.2524323E1],"tree_param":{"num_deleted":"0","num_feature":"1000","num_nodes":"5","size_leaf_vector":"1"}},{"base_weights":[-3.3132855E-2,4.7270726E-2,-6.5566605E-1,-4.8670318E-2,3.763492E-2],"categories":[],"categories_nodes":[],"categories_segments":[],"categories_sizes":[],"default_left":[0,0,1,0,0],"id":50,"left_children":[1,-1,3,-1,-1],"loss_changes":[1.6296265E1,0E0,8.035055E0,0E0,0E0],"parents":[2147483647,0,0,2,2],"right_children":[2,-1,4,-1,-1],"split_conditions":[2.5144422E-1,4.7270726E-2,9.042078E-2,-4.8670318E-2,3.763492E-2],"split_indices":[572,0,552,0,0],"split_type":[0,0,0,0,0],"sum_hessian":[2.4733664E1,9.415295E0,1.531837E1,1.2750562E1,2.5678077E0],"tree_param":{"num_deleted":"0","num_feature":"1000","num_nodes":"5","size_leaf_vector":"1"}},{"base_weights":[-3.142648E-2,6.252418E-1,-4.7342714E-2,-3.777182E-2,4.801425E-2],"categories":[],"categories_nodes":[],"categories_segments":[],"categories_sizes":[],"default_left":[0,0,0,0,0],"id":51,"left_children":[1,3,-1,-1,-1],"loss_changes":[1.5438588E1,7.6566906E0,0E0,0E0,0E0],"parents":[2147483647,0,0,1,1],"right_children":[2,4,-1,-1,-1],"split_conditions":[7.549744E-1,4.705953E-1,-4.7342714E-2,-3.777182E-2,4.801425E-2],"split_indices":[91,544,0,0,0],"split_type":[0,0,0,0,0],"sum_hessian":[2.369768E1,1.3983687E1,9.713993E0,2.4856865E0,1.1498001E1],"tree_param":{"num_deleted":"0","num_feature":"1000","num_nodes":"5","size_leaf_vector":"1"}},{"base_weights":[-3.264208E-2,4.667365E-2,-6.473599E-1,-4.8152678E-2,3.666106E-2],"categories":[],"categories_nodes":[],"categories_segments":[],"categories_sizes":[],"default_left":[0,0,1,0,0],"id":52,"left_children":[1,-1,3,-1,-1],"loss_changes":[1.4683633E1,0E0,7.278128E0,0E0,0E0],"parents":[2147483647,0,0,2,2],"right_children":[2,-1,4,-1,-1],"split_conditions":[2.5144422E-1,4.667365E-2,9.042078E-2,-4.8152678E-2,3.666106E-2],"split_indices":[572,0,552,0,0],"split_type":[0,0,0,0,0],"sum_hessian":[2.2707056E1,8.628159E0,1.4078897E1,1.1704818E1,2.3740797E0],"tree_param":{"num_deleted":"0","num_feature":"1000","num_nodes":"5","size_leaf_vector":"1"}},{"base_weights":[-3.0852947E-2,6.1708343E-1,-4.6759423E-2,-3.6757197E-2,4.7498748E-2],"categories":[],"categories_nodes":[],"categories_segments":[],"categories_sizes":[],"default_left":[0,0,0,0,0],"id":53,"left_children":[1,3,-1,-1,-1],"loss_changes":[1.3913501E1,6.938423E0,0E0,0E0,0E0],"parents":[2147483647,0,0,1,1],"right_children":[2,4,-1,-1,-1],"split_conditions":[7.549744E-1,4.705953E-1,-4.6759423E-2,-3.6757197E-2,4.7498748E-2],"split_indices":[91,544,0,0,0],"split_type":[0,0,0,0,0],"sum_hessian":[2.1760252E1,1.2862322E1,8.89793E0,2.3022146E0,1.0560107E1],"tree_param":{"num_deleted":"0","num_feature":"1000","num_nodes":"5","size_leaf_vector":"1"}},{"base_weights":[-3.2144137E-2,4.607109E-2,-6.3904077E-1,-4.763635E-2,3.5687745E-2],"categories":[],"categories_nodes":[],"categories_segments":[],"categories_sizes":[],"default_left":[0,0,1,0,0],"id":54,"left_children":[1,-1,3,-1,-1],"loss_changes":[1.3236785E1,0E0,6.5979342E0,0E0,0E0],"parents":[2147483647,0,0,2,2],"right_children":[2,-1,4,-1,-1],"split_conditions":[2.5144422E-1,4.607109E-2,9.042078E-2,-4.763635E-2,3.5687745E-2],"split_indices":[572,0,552,0,0],"split_type":[0,0,0,0,0],"sum_hessian":[2.085521E1,7.90947E0,1.294574E1,1.0748998E1,2.1967418E0],"tree_param":{"num_deleted":"0","num_feature":"1000","num_nodes":"5","size_leaf_vector":"1"}},{"base_weights":[-3.0270439E-2,6.089119E-1,-4.617023E-2,-3.5748545E-2,4.6980973E-2],"categories":[],"categories_nodes":[],"categories_segments":[],"categories_sizes":[],"default_left":[0,0,0,0,0],"id":55,"left_children":[1,3,-1,-1,-1],"loss_changes":[1.2545197E1,6.2921643E0,0E0,0E0,0E0],"parents":[2147483647,0,0,1,1],"right_children":[2,4,-1,-1,-1],"split_conditions":[7.549744E-1,4.705953E-1,-4.617023E-2,-3.5748545E-2,4.6980973E-2],"split_indices":[91,544,0,0,0],"split_type":[0,0,0,0,0],"sum_hessian":[1.999043E1,1.1837214E1,8.153216E0,2.1336963E0,9.703519E0],"tree_param":{"num_deleted":"0","num_feature":"1000","num_nodes":"5","size_leaf_vector":"1"}},{"base_weights":[-3.1636514E-2,4.546025E-2,-6.3067347E-1,-4.711832E-2,3.471599E-2],"categories":[],"categories_nodes":[],"categories_segments":[],"categories_sizes":[],"default_left":[0,0,1,0,0],"id":56,"left_children":[1,-1,3,-1,-1],"loss_changes":[1.1937857E1,0E0,5.986169E0,0E0,0E0],"parents":[2147483647,0,0,2,2],"right_children":[2,-1,4,-1,-1],"split_conditions":[2.5144422E-1,4.546025E-2,9.042078E-2,-4.711832E-2,3.471599E-2],"split_indices":[572,0,552,0,0],"split_type":[0,0,0,0,0],"sum_hessian":[1.9164066E1,7.2537E0,1.1910367E1,9.875921E0,2.0344462E0],"tree_param":{"num_deleted":"0","num_feature":"1000","num_nodes":"5","size_leaf_vector":"1"}},{"base_weights":[-2.9675951E-2,6.006985E-1,-4.557235E-2,-3.474621E-2,4.6458416E-2],"categories":[],"categories_nodes":[],"categories_segments":[],"categories_sizes":[],"default_left":[0,0,0,0,0],"id":57,"left_children":[1,3,-1,-1,-1],"loss_changes":[1.1316804E1,5.7102695E0,0E0,0E0,0E0],"parents":[2147483647,0,0,1,1],"right_children":[2,4,-1,-1,-1],"split_conditions":[7.549744E-1,4.705953E-1,-4.557235E-2,-3.474621E-2,4.6458416E-2],"split_indices":[91,544,0,0,0],"split_type":[0,0,0,0,0],"sum_hessian":[1.837461E1,1.0900587E1,7.4740243E0,1.9789879E0,8.921599E0],"tree_param":{"num_deleted":"0","num_feature":"1000","num_nodes":"5","size_leaf_vector":"1"}},{"base_weights":[-3.1117948E-2,4.483879E-2,-6.2223077E-1,-4.6595998E-2,3.3747084E-2],"categories":[],"categories_nodes":[],"categories_segments":[],"categories_sizes":[],"default_left":[0,0,1,0,0],"id":58,"left_children":[1,-1,3,-1,-1],"loss_changes":[1.07711115E1,0E0,5.4354763E0,0E0,0E0],"parents":[2147483647,0,0,2,2],"right_children":[2,-1,4,-1,-1],"split_conditions":[2.5144422E-1,4.483879E-2,9.042078E-2,-4.6595998E-2,3.3747084E-2],"split_indices":[572,0,552,0,0],"split_type":[0,0,0,0,0],"sum_hessian":[1.7620417E1,6.65566E0,1.0964757E1,9.078836E0,1.8859211E0],"tree_param":{"num_deleted":"0","num_feature":"1000","num_nodes":"5","size_leaf_vector":"1"}},{"base_weights":[-2.9070085E-2,5.924183E-1,-4.496345E-2,-3.3750985E-2,4.592892E-2],"categories":[],"categories_nodes":[],"categories_segments":[],"categories_sizes":[],"default_left":[0,0,0,0,0],"id":59,"left_children":[1,3,-1,-1,-1],"loss_changes":[1.0213394E1,5.1859646E0,0E0,0E0,0E0],"parents":[2147483647,0,0,1,1],"right_children":[2,4,-1,-1,-1],"split_conditions":[7.549744E-1,4.705953E-1,-4.496345E-2,-3.3750985E-2,4.592892E-2],"split_indices":[91,544,0,0,0],"split_type":[0,0,0,0,0],"sum_hessian":[1.6899998E1,1.00450945E1,6.854903E0,1.8370059E0,8.208089E0],"tree_param":{"num_deleted":"0","num_feature":"1000","num_nodes":"5","size_leaf_vector":"1"}},{"base_weights":[-3.0587887E-2,4.4204753E-2,-6.1368877E-1,-4.6067145E-2,3.2782674E-2],"categories":[],"categories_nodes":[],"categories_segments":[],"categories_sizes":[],"default_left":[0,0,1,0,0],"id":60,"left_children":[1,-1,3,-1,-1],"loss_changes":[9.722578E0,0E0,4.939395E0,0E0,0E0],"parents":[2147483647,0,0,2,2],"right_children":[2,-1,4,-1,-1],"split_conditions":[2.5144422E-1,4.4204753E-2,9.042078E-2,-4.6067145E-2,3.2782674E-2],"split_indices":[572,0,552,0,0],"split_type":[0,0,0,0,0],"sum_hessian":[1.621192E1,6.1104875E0,1.0101431E1,8.351429E0,1.7500025E0],"tree_param":{"num_deleted":"0","num_feature":"1000","num_nodes":"5","size_leaf_vector":"1"}},{"base_weights":[-2.8451743E-2,5.840527E-1,-4.434159E-2,-3.276397E-2,4.5390684E-2],"categories":[],"categories_nodes":[],"categories_segments":[],"categories_sizes":[],"default_left":[0,0,0,0,0],"id":61,"left_children":[1,3,-1,-1,-1],"loss_changes":[9.221782E0,4.7132473E0,0E0,0E0,0E0],"parents":[2147483647,0,0,1,1],"right_children":[2,4,-1,-1,-1],"split_conditions":[7.549744E-1,4.705953E-1,-4.434159E-2,-3.276397E-2,4.5390684E-2],"split_indices":[91,544,0,0,0],"split_type":[0,0,0,0,0],"sum_hessian":[1.55547E1,9.26393E0,6.2907696E0,1.7067317E0,7.5571985E0],"tree_param":{"num_deleted":"0","num_feature":"1000","num_nodes":"5","size_leaf_vector":"1"}},{"base_weights":[-3.0044366E-2,4.3556686E-2,-6.050323E-1,-4.552989E-2,3.1824466E-2],"categories":[],"categories_nodes":[],"categories_segments":[],"categories_sizes":[],"default_left":[0,0,1,0,0],"id":62,"left_children":[1,-1,3,-1,-1],"loss_changes":[8.77996E0,0E0,4.4921417E0,0E0,0E0],"parents":[2147483647,0,0,2,2],"right_children":[2,-1,4,-1,-1],"split_conditions":[2.5144422E-1,4.3556686E-2,9.042078E-2,-4.552989E-2,3.1824466E-2],"split_indices":[572,0,552,0,0],"split_type":[0,0,0,0,0],"sum_hessian":[1.492711E1,5.613706E0,9.313403E0,7.687813E0,1.6255907E0],"tree_param":{"num_deleted":"0","num_feature":"1000","num_nodes":"5","size_leaf_vector":"1"}},{"base_weights":[-2.7819006E-2,5.7558894E-1,-4.3705255E-2,-3.1786542E-2,4.484228E-2],"categories":[],"categories_nodes":[],"categories_segments":[],"categories_sizes":[],"default_left":[0,0,0,0,0],"id":63,"left_children":[1,3,-1,-1,-1],"loss_changes":[8.330297E0,4.286789E0,0E0,0E0,0E0],"parents":[2147483647,0,0,1,1],"right_children":[2,4,-1,-1,-1],"split_conditions":[7.549744E-1,4.705953E-1,-4.3705255E-2,-3.1786542E-2,4.484228E-2],"split_indices":[91,544,0,0,0],"split_type":[0,0,0,0,0],"sum_hessian":[1.4327689E1,8.550785E0,5.7769046E0,1.5872111E0,6.9635735E0],"tree_param":{"num_deleted":"0","num_feature":"1000","num_nodes":"5","size_leaf_vector":"1"}},{"base_weights":[-2.9486166E-2,4.28935E-2,-5.9624743E-1,-4.49827E-2,3.0874476E-2],"categories":[],"categories_nodes":[],"categories_segments":[],"categories_sizes":[],"default_left":[0,0,1,0,0],"id":64,"left_children":[1,-1,3,-1,-1],"loss_changes":[7.932255E0,0E0,4.0886555E0,0E0,0E0],"parents":[2147483647,0,0,2,2],"right_children":[2,-1,4,-1,-1],"split_conditions":[2.5144422E-1,4.28935E-2,9.042078E-2,-4.49827E-2,3.0874476E-2],"split_indices":[572,0,552,0,0],"split_type":[0,0,0,0,0],"sum_hessian":[1.375536E1,5.1611347E0,8.594224E0,7.082527E0,1.5116972E0],"tree_param":{"num_deleted":"0","num_feature":"1000","num_nodes":"5","size_leaf_vector":"1"}},{"base_weights":[-2.7173847E-2,5.670163E-1,-4.3053325E-2,-3.082025E-2,4.428256E-2],"categories":[],"categories_nodes":[],"categories_segments":[],"categories_sizes":[],"default_left":[0,0,0,0,0],"id":65,"left_children":[1,3,-1,-1,-1],"loss_changes":[7.5285172E0,3.9018357E0,0E0,0E0,0E0],"parents":[2147483647,0,0,1,1],"right_children":[2,4,-1,-1,-1],"split_conditions":[7.549744E-1,4.705953E-1,-4.3053325E-2,-3.082025E-2,4.428256E-2],"split_indices":[91,544,0,0,0],"split_type":[0,0,0,0,0],"sum_hessian":[1.3208696E1,7.8997602E0,5.3089366E0,1.477554E0,6.4222064E0],"tree_param":{"num_deleted":"0","num_feature":"1000","num_nodes":"5","size_leaf_vector":"1"}},{"base_weights":[-2.8914735E-2,4.2214476E-2,-5.8732635E-1,-4.4424396E-2,2.993471E-2],"categories":[],"categories_nodes":[],"categories_segments":[],"categories_sizes":[],"default_left":[0,0,1,0,0],"id":66,"left_children":[1,-1,3,-1,-1],"loss_changes":[7.1696587E0,0E0,3.7244105E0,0E0,0E0],"parents":[2147483647,0,0,2,2],"right_children":[2,-1,4,-1,-1],"split_conditions":[2.5144422E-1,4.2214476E-2,9.042078E-2,-4.4424396E-2,2.993471E-2],"split_indices":[572,0,552,0,0],"split_type":[0,0,0,0,0],"sum_hessian":[1.2686801E1,4.748885E0,7.937916E0,6.5305142E0,1.4074012E0],"tree_param":{"num_deleted":"0","num_feature":"1000","num_nodes":"5","size_leaf_vector":"1"}},{"base_weights":[-2.6516091E-2,5.583301E-1,-4.2385083E-2,-2.986675E-2,4.3710724E-2],"categories":[],"categories_nodes":[],"categories_segments":[],"categories_sizes":[],"default_left":[0,0,0,0,0],"id":67,"left_children":[1,3,-1,-1,-1],"loss_changes":[6.8071985E0,3.5541575E0,0E0,0E0,0E0],"parents":[2147483647,0,0,1,1],"right_children":[2,4,-1,-1,-1],"split_conditions":[7.549744E-1,4.705953E-1,-4.2385083E-2,-2.986675E-2,4.3710724E-2],"split_indices":[91,544,0,0,0],"split_type":[0,0,0,0,0],"sum_hessian":[1.2188283E1,7.3054514E0,4.882831E0,1.3769343E0,5.9285173E0],"tree_param":{"num_deleted":"0","num_feature":"1000","num_nodes":"5","size_leaf_vector":"1"}},{"base_weights":[-2.8328735E-2,4.1534826E-2,-5.784482E-1,2.897176E-2,-4.3854084E-2],"categories":[],"categories_nodes":[],"categories_segments":[],"categories_sizes":[],"default_left":[0,0,0,0,0],"id":68,"left_children":[1,-1,3,-1,-1],"loss_changes":[6.4879603E0,0E0,3.3917172E0,0E0,0E0],"parents":[2147483647,0,0,2,2],"right_children":[2,-1,4,-1,-1],"split_conditions":[1.6389129E-1,4.1534826E-2,2.0082791E-1,2.897176E-2,-4.3854084E-2],"split_indices":[586,0,56,0,0],"split_type":[0,0,0,0,0],"sum_hessian":[1.171238E1,4.3733134E0,7.3390675E0,1.3119582E0,6.027109E0],"tree_param":{"num_deleted":"0","num_feature":"1000","num_nodes":"5","size_leaf_vector":"1"}},{"base_weights":[-2.5847761E-2,4.119304E-2,-5.729959E-1,-4.3547004E-2,2.8544625E-2],"categories":[],"categories_nodes":[],"categories_segments":[],"categories_sizes":[],"default_left":[0,0,1,0,0],"id":69,"left_children":[1,-1,3,-1,-1],"loss_changes":[6.170903E0,0E0,3.2394772E0,0E0,0E0],"parents":[2147483647,0,0,2,2],"right_children":[2,-1,4,-1,-1],"split_conditions":[2.5144422E-1,4.119304E-2,9.042078E-2,-4.3547004E-2,2.8544625E-2],"split_indices":[572,0,552,0,0],"split_type":[0,0,0,0,0],"sum_hessian":[1.125776E1,4.211563E0,7.0461974E0,5.7794585E0,1.2667387E0],"tree_param":{"num_deleted":"0","num_feature":"1000","num_nodes":"5","size_leaf_vector":"1"}},{"base_weights":[-2.3351518E-2,5.476965E-1,-4.134407E-2,-2.8371392E-2,4.2846855E-2],"categories":[],"categories_nodes":[],"categories_segments":[],"categories_sizes":[],"default_left":[0,0,0,0,0],"id":70,"left_children":[1,3,-1,-1,-1],"loss_changes":[5.878175E0,3.077114E0,0E0,0E0,0E0],"parents":[2147483647,0,0,1,1],"right_children":[2,4,-1,-1,-1],"split_conditions":[7.549744E-1,4.705953E-1,-4.134407E-2,-2.8371392E-2,4.2846855E-2],"split_indices":[91,544,0,0,0],"split_type":[0,0,0,0,0],"sum_hessian":[1.0823573E1,6.5131974E0,4.310375E0,1.2328007E0,5.280397E0],"tree_param":{"num_deleted":"0","num_feature":"1000","num_nodes":"5","size_leaf_vector":"1"}},{"base_weights":[-2.5289567E-2,4.0489104E-2,-5.639772E-1,2.7604997E-2,-4.295737E-2],"categories":[],"categories_nodes":[],"categories_segments":[],"categories_sizes":[],"default_left":[0,0,0,0,0],"id":71,"left_children":[1,-1,3,-1,-1],"loss_changes":[5.5889664E0,0E0,2.9532204E0,0E0,0E0],"parents":[2147483647,0,0,2,2],"right_children":[2,-1,4,-1,-1],"split_conditions":[1.6389129E-1,4.0489104E-2,2.0082791E-1,2.7604997E-2,-4.295737E-2],"split_indices":[586,0,56,0,0],"split_type":[0,0,0,0,0],"sum_hessian":[1.0409026E1,3.8843186E0,6.5247073E0,1.18262E0,5.3420873E0],"tree_param":{"num_deleted":"0","num_feature":"1000","num_nodes":"5","size_leaf_vector":"1"}},{"base_weights":[-2.2715004E-2,5.386746E-1,-4.0634334E-2,-2.7458489E-2,4.2243347E-2],"categories":[],"categories_nodes":[],"categories_segments":[],"categories_sizes":[],"default_left":[0,0,0,0,0],"id":72,"left_children":[1,3,-1,-1,-1],"loss_changes":[5.32184E0,2.8086948E0,0E0,0E0,0E0],"parents":[2147483647,0,0,1,1],"right_children":[2,4,-1,-1,-1],"split_conditions":[7.549744E-1,4.705953E-1,-4.0634334E-2,-2.7458489E-2,4.2243347E-2],"split_indices":[91,544,0,0,0],"split_type":[0,0,0,0,0],"sum_hessian":[1.0013001E1,6.039306E0,3.973695E0,1.152202E0,4.887104E0],"tree_param":{"num_deleted":"0","num_feature":"1000","num_nodes":"5","size_leaf_vector":"1"}},{"base_weights":[-2.4720585E-2,3.9762538E-2,-5.562068E-1,-4.2354893E-2,2.665182E-2],"categories":[],"categories_nodes":[],"categories_segments":[],"categories_sizes":[],"default_left":[0,0,1,0,0],"id":73,"left_children":[1,-1,3,-1,-1],"loss_changes":[5.077025E0,0E0,2.6824596E0,0E0,0E0],"parents":[2147483647,0,0,2,2],"right_children":[2,-1,4,-1,-1],"split_conditions":[2.5144422E-1,3.9762538E-2,9.042078E-2,-4.2354893E-2,2.665182E-2],"split_indices":[572,0,552,0,0],"split_type":[0,0,0,0,0],"sum_hessian":[9.634841E0,3.593913E0,6.0409284E0,4.943132E0,1.0977964E0],"tree_param":{"num_deleted":"0","num_feature":"1000","num_nodes":"5","size_leaf_vector":"1"}},{"base_weights":[-2.2078078E-2,5.2954656E-1,-3.9908763E-2,-2.6564289E-2,4.1627344E-2],"categories":[],"categories_nodes":[],"categories_segments":[],"categories_sizes":[],"default_left":[0,0,0,0,0],"id":74,"left_children":[1,3,-1,-1,-1],"loss_changes":[4.820869E0,2.5658054E0,0E0,0E0,0E0],"parents":[2147483647,0,0,1,1],"right_children":[2,4,-1,-1,-1],"split_conditions":[7.549744E-1,4.705953E-1,-3.9908763E-2,-2.6564289E-2,4.1627344E-2],"split_indices":[91,544,0,0,0],"split_type":[0,0,0,0,0],"sum_hessian":[9.27342E0,5.6063147E0,3.6671062E0,1.07816E0,4.5281544E0],"tree_param":{"num_deleted":"0","num_feature":"1000","num_nodes":"5","size_leaf_vector":"1"}},{"base_weights":[-2.4146384E-2,3.9028756E-2,-5.469761E-1,2.5749687E-2,-4.173974E-2],"categories":[],"categories_nodes":[],"categories_segments":[],"categories_sizes":[],"default_left":[0,0,0,0,0],"id":75,"left_children":[1,-1,3,-1,-1],"loss_changes":[4.604144E0,0E0,2.4491496E0,0E0,0E0],"parents":[2147483647,0,0,2,2],"right_children":[2,-1,4,-1,-1],"split_conditions":[1.6389129E-1,3.9028756E-2,2.0082791E-1,2.5749687E-2,-4.173974E-2],"split_indices":[586,0,56,0,0],"split_type":[0,0,0,0,0],"sum_hessian":[8.928375E0,3.3221126E0,5.6062627E0,1.0271326E0,4.57913E0],"tree_param":{"num_deleted":"0","num_feature":"1000","num_nodes":"5","size_leaf_vector":"1"}},{"base_weights":[-2.1437902E-2,3.8671125E-2,-5.4099745E-1,-4.1366544E-2,2.4539359E-2],"categories":[],"categories_nodes":[],"categories_segments":[],"categories_sizes":[],"default_left":[0,0,1,0,0],"id":76,"left_children":[1,-1,3,-1,-1],"loss_changes":[4.382384E0,0E0,2.2947116E0,0E0,0E0],"parents":[2147483647,0,0,2,2],"right_children":[2,-1,4,-1,-1],"split_conditions":[2.5144422E-1,3.8671125E-2,7.78207E-2,-4.1366544E-2,2.4539359E-2],"split_indices":[572,0,552,0,0],"split_type":[0,0,0,0,0],"sum_hessian":[8.598503E0,3.205651E0,5.3928523E0,4.376479E0,1.0163732E0],"tree_param":{"num_deleted":"0","num_feature":"1000","num_nodes":"5","size_leaf_vector":"1"}},{"base_weights":[-1.8806659E-2,5.181861E-1,-3.8782865E-2,3.7976235E-2,-1.56599E-2],"categories":[],"categories_nodes":[],"categories_segments":[],"categories_sizes":[],"default_left":[0,1,0,0,0],"id":77,"left_children":[1,3,-1,-1,-1],"loss_changes":[4.1758213E0,1.4480195E0,0E0,0E0,0E0],"parents":[2147483647,0,0,1,1],"right_children":[2,4,-1,-1,-1],"split_conditions":[7.549744E-1,4.7051597E-2,-3.8782865E-2,3.7976235E-2,-1.56599E-2],"split_indices":[91,760,0,0,0],"split_type":[0,0,0,0,0],"sum_hessian":[8.285606E0,5.0312357E0,3.2543707E0,3.966308E0,1.0649276E0],"tree_param":{"num_deleted":"0","num_feature":"1000","num_nodes":"5","size_leaf_vector":"1"}},{"base_weights":[-2.019955E-2,3.797078E-2,-5.3129435E-1,-4.0681485E-2,2.2221297E-2],"categories":[],"categories_nodes":[],"categories_segments":[],"categories_sizes":[],"default_left":[0,0,0,0,0],"id":78,"left_children":[1,-1,3,-1,-1],"loss_changes":[3.9980228E0,0E0,2.024766E0,0E0,0E0],"parents":[2147483647,0,0,2,2],"right_children":[2,-1,4,-1,-1],"split_conditions":[1.6389129E-1,3.797078E-2,4.010525E-2,-4.0681485E-2,2.2221297E-2],"split_indices":[586,0,341,0,0],"split_type":[0,0,0,0,0],"sum_hessian":[8.021166E0,2.983827E0,5.0373387E0,4.0356917E0,1.0016471E0],"tree_param":{"num_deleted":"0","num_feature":"1000","num_nodes":"5","size_leaf_vector":"1"}},{"base_weights":[-1.7682845E-2,3.761016E-2,-5.2509606E-1,-4.0251624E-2,2.0430489E-2],"categories":[],"categories_nodes":[],"categories_segments":[],"categories_sizes":[],"default_left":[0,0,1,0,0],"id":79,"left_children":[1,-1,3,-1,-1],"loss_changes":[3.8084793E0,0E0,1.8594933E0,0E0,0E0],"parents":[2147483647,0,0,2,2],"right_children":[2,-1,4,-1,-1],"split_conditions":[2.5144422E-1,3.761016E-2,7.402607E-2,-4.0251624E-2,2.0430489E-2],"split_indices":[572,0,552,0,0],"split_type":[0,0,0,0,0],"sum_hessian":[7.7379947E0,2.8823087E0,4.855686E0,3.841705E0,1.013981E0],"tree_param":{"num_deleted":"0","num_feature":"1000","num_nodes":"5","size_leaf_vector":"1"}},{"base_weights":[-1.53306825E-2,-3.7707794E-2,5.0516015E-1,3.7653323E-2,-5.3020245E-3],"categories":[],"categories_nodes":[],"categories_segments":[],"categories_sizes":[],"default_left":[0,0,1,0,0],"id":80,"left_children":[1,-1,3,-1,-1],"loss_changes":[3.638501E0,0E0,9.236249E-1,0E0,0E0],"parents":[2147483647,0,0,2,2],"right_children":[2,-1,4,-1,-1],"split_conditions":[2.821815E-1,-3.7707794E-2,3.0636728E-2,3.7653323E-2,-5.3020245E-3],"split_indices":[765,0,165,0,0],"split_type":[0,0,0,0,0],"sum_hessian":[7.470983E0,2.9023001E0,4.5686827E0,3.0851994E0,1.4834834E0],"tree_param":{"num_deleted":"0","num_feature":"1000","num_nodes":"5","size_leaf_vector":"1"}},{"base_weights":[-1.5580613E-2,3.692613E-2,-5.1384646E-1,1.8768212E-2,-3.9575048E-2],"categories":[],"categories_nodes":[],"categories_segments":[],"categories_sizes":[],"default_left":[0,0,0,0,0],"id":81,"left_children":[1,-1,3,-1,-1],"loss_changes":[3.4815345E0,0E0,1.6700324E0,0E0,0E0],"parents":[2147483647,0,0,2,2],"right_children":[2,-1,4,-1,-1],"split_conditions":[1.6389129E-1,3.692613E-2,1.0706465E-1,1.8768212E-2,-3.9575048E-2],"split_indices":[586,0,245,0,0],"split_type":[0,0,0,0,0],"sum_hessian":[7.2557483E0,2.6949203E0,4.560828E0,1.0015076E0,3.5593204E0],"tree_param":{"num_deleted":"0","num_feature":"1000","num_nodes":"5","size_leaf_vector":"1"}},{"base_weights":[-1.3338023E-2,4.9746168E-1,-3.6955018E-2,3.746434E-2,-1.0382077E-2],"categories":[],"categories_nodes":[],"categories_segments":[],"categories_sizes":[],"default_left":[0,1,0,0,0],"id":82,"left_children":[1,3,-1,-1,-1],"loss_changes":[3.3380792E0,1.0967411E0,0E0,0E0,0E0],"parents":[2147483647,0,0,1,1],"right_children":[2,4,-1,-1,-1],"split_conditions":[7.549744E-1,3.2701705E-2,-3.6955018E-2,3.746434E-2,-1.0382077E-2],"split_indices":[91,165,0,0,0],"split_type":[0,0,0,0,0],"sum_hessian":[7.012548E0,4.3004265E0,2.7121217E0,3.1225545E0,1.1778717E0],"tree_param":{"num_deleted":"0","num_feature":"1000","num_nodes":"5","size_leaf_vector":"1"}},{"base_weights":[-1.4243998E-2,-3.662849E-2,4.8922026E-1,3.6569525E-2,-4.6729697E-3],"categories":[],"categories_nodes":[],"categories_segments":[],"categories_sizes":[],"default_left":[0,0,1,0,0],"id":83,"left_children":[1,-1,3,-1,-1],"loss_changes":[3.180162E0,0E0,8.002645E-1,0E0,0E0],"parents":[2147483647,0,0,2,2],"right_children":[2,-1,4,-1,-1],"split_conditions":[2.821815E-1,-3.662849E-2,3.0636728E-2,3.6569525E-2,-4.6729697E-3],"split_indices":[765,0,165,0,0],"split_type":[0,0,0,0,0],"sum_hessian":[6.80247E0,2.6155846E0,4.1868854E0,2.7773566E0,1.4095289E0],"tree_param":{"num_deleted":"0","num_feature":"1000","num_nodes":"5","size_leaf_vector":"1"}},{"base_weights":[-1.4479922E-2,3.5877872E-2,-4.988825E-1,-3.8476694E-2,1.56866E-2],"categories":[],"categories_nodes":[],"categories_segments":[],"categories_sizes":[],"default_left":[0,0,0,0,0],"id":84,"left_children":[1,-1,3,-1,-1],"loss_changes":[3.057848E0,0E0,1.3788855E0,0E0,0E0],"parents":[2147483647,0,0,2,2],"right_children":[2,-1,4,-1,-1],"split_conditions":[1.6389129E-1,3.5877872E-2,3.8525213E-2,-3.8476694E-2,1.56866E-2],"split_indices":[586,0,341,0,0],"split_type":[0,0,0,0,0],"sum_hessian":[6.6138334E0,2.4420466E0,4.1717863E0,3.169245E0,1.0025415E0],"tree_param":{"num_deleted":"0","num_feature":"1000","num_nodes":"5","size_leaf_vector":"1"}},{"base_weights":[-1.2470067E-2,4.8124668E-1,-3.5880677E-2,3.6433086E-2,-9.569109E-3],"categories":[],"categories_nodes":[],"categories_segments":[],"categories_sizes":[],"default_left":[0,1,0,0,0],"id":85,"left_children":[1,3,-1,-1,-1],"loss_changes":[2.9227822E0,9.6374154E-1,0E0,0E0,0E0],"parents":[2147483647,0,0,1,1],"right_children":[2,4,-1,-1,-1],"split_conditions":[7.549744E-1,3.2701705E-2,-3.5880677E-2,3.6433086E-2,-9.569109E-3],"split_indices":[91,165,0,0,0],"split_type":[0,0,0,0,0],"sum_hessian":[6.4034142E0,3.9531069E0,2.4503076E0,2.8291485E0,1.1239582E0],"tree_param":{"num_deleted":"0","num_feature":"1000","num_nodes":"5","size_leaf_vector":"1"}},{"base_weights":[-1.3365855E-2,3.51612E-2,-4.8875004E-1,-3.765737E-2,1.3396624E-2],"categories":[],"categories_nodes":[],"categories_segments":[],"categories_sizes":[],"default_left":[0,0,1,0,0],"id":86,"left_children":[1,-1,3,-1,-1],"loss_changes":[2.8027542E0,0E0,1.1880387E0,0E0,0E0],"parents":[2147483647,0,0,2,2],"right_children":[2,-1,4,-1,-1],"split_conditions":[2.5144422E-1,3.51612E-2,6.864846E-2,-3.765737E-2,1.3396624E-2],"split_indices":[572,0,552,0,0],"split_type":[0,0,0,0,0],"sum_hessian":[6.218593E0,2.2889602E0,3.9296331E0,2.9155602E0,1.0140728E0],"tree_param":{"num_deleted":"0","num_feature":"1000","num_nodes":"5","size_leaf_vector":"1"}},{"base_weights":[-1.1574793E-2,-3.5189714E-2,4.713751E-1,3.5159346E-2,-3.8998479E-3],"categories":[],"categories_nodes":[],"categories_segments":[],"categories_sizes":[],"default_left":[0,0,1,0,0],"id":87,"left_children":[1,-1,3,-1,-1],"loss_changes":[2.681517E0,0E0,6.583748E-1,0E0,0E0],"parents":[2147483647,0,0,2,2],"right_children":[2,-1,4,-1,-1],"split_conditions":[2.821815E-1,-3.5189714E-2,3.0636728E-2,3.5159346E-2,-3.8998479E-3],"split_indices":[765,0,165,0,0],"split_type":[0,0,0,0,0],"sum_hessian":[6.02876E0,2.2896652E0,3.7390945E0,2.43264E0,1.3064544E0],"tree_param":{"num_deleted":"0","num_feature":"1000","num_nodes":"5","size_leaf_vector":"1"}},{"base_weights":[-1.1811631E-2,3.4493715E-2,-4.7871885E-1,1.2192647E-2,-3.694727E-2],"categories":[],"categories_nodes":[],"categories_segments":[],"categories_sizes":[],"default_left":[0,0,0,0,0],"id":88,"left_children":[1,-1,3,-1,-1],"loss_changes":[2.5809305E0,0E0,1.0668222E0,0E0,0E0],"parents":[2147483647,0,0,2,2],"right_children":[2,-1,4,-1,-1],"split_conditions":[1.6389129E-1,3.4493715E-2,9.716471E-2,1.2192647E-2,-3.694727E-2],"split_indices":[586,0,925,0,0],"split_type":[0,0,0,0,0],"sum_hessian":[5.869725E0,2.1544282E0,3.715297E0,1.0004009E0,2.7148962E0],"tree_param":{"num_deleted":"0","num_feature":"1000","num_nodes":"5","size_leaf_vector":"1"}},{"base_weights":[-1.0134295E-2,4.6080795E-1,-3.4415524E-2,3.510639E-2,-8.751609E-3],"categories":[],"categories_nodes":[],"categories_segments":[],"categories_sizes":[],"default_left":[0,1,0,0,0],"id":89,"left_children":[1,3,-1,-1,-1],"loss_changes":[2.4557648E0,8.2117105E-1,0E0,0E0,0E0],"parents":[2147483647,0,0,1,1],"right_children":[2,4,-1,-1,-1],"split_conditions":[7.549744E-1,3.2701705E-2,-3.4415524E-2,3.510639E-2,-8.751609E-3],"split_indices":[91,165,0,0,0],"split_type":[0,0,0,0,0],"sum_hessian":[5.696016E0,3.5507832E0,2.1452324E0,2.4983387E0,1.0524446E0],"tree_param":{"num_deleted":"0","num_feature":"1000","num_nodes":"5","size_leaf_vector":"1"}},{"base_weights":[-1.1060582E-2,3.3770904E-2,-4.677916E-1,-3.6128283E-2,1.0565609E-2],"categories":[],"categories_nodes":[],"categories_segments":[],"categories_sizes":[],"default_left":[0,0,0,0,0],"id":90,"left_children":[1,-1,3,-1,-1],"loss_changes":[2.3663144E0,0E0,9.343224E-1,0E0,0E0],"parents":[2147483647,0,0,2,2],"right_children":[2,-1,4,-1,-1],"split_conditions":[1.6389129E-1,3.3770904E-2,3.7894513E-2,-3.6128283E-2,1.0565609E-2],"split_indices":[586,0,341,0,0],"split_type":[0,0,0,0,0],"sum_hessian":[5.539469E0,2.0218163E0,3.5176525E0,2.5114517E0,1.0062008E0],"tree_param":{"num_deleted":"0","num_feature":"1000","num_nodes":"5","size_leaf_vector":"1"}},{"base_weights":[-9.550944E-3,-3.3771686E-2,4.5345303E-1,3.3761878E-2,-3.2770112E-3],"categories":[],"categories_nodes":[],"categories_segments":[],"categories_sizes":[],"default_left":[0,0,1,0,0],"id":91,"left_children":[1,-1,3,-1,-1],"loss_changes":[2.2738497E0,0E0,5.4642427E-1,0E0,0E0],"parents":[2147483647,0,0,2,2],"right_children":[2,-1,4,-1,-1],"split_conditions":[2.821815E-1,-3.3771686E-2,3.0636728E-2,3.3761878E-2,-3.2770112E-3],"split_indices":[765,0,165,0,0],"split_type":[0,0,0,0,0],"sum_hessian":[5.3818736E0,2.0191567E0,3.3627172E0,2.1450202E0,1.2176968E0],"tree_param":{"num_deleted":"0","num_feature":"1000","num_nodes":"5","size_leaf_vector":"1"}},{"base_weights":[-9.785855E-3,3.3086184E-2,-4.5728427E-1,-3.5358474E-2,9.4080195E-3],"categories":[],"categories_nodes":[],"categories_segments":[],"categories_sizes":[],"default_left":[0,0,1,0,0],"id":92,"left_children":[1,-1,3,-1,-1],"loss_changes":[2.1798205E0,0E0,8.330701E-1,0E0,0E0],"parents":[2147483647,0,0,2,2],"right_children":[2,-1,4,-1,-1],"split_conditions":[2.5144422E-1,3.3086184E-2,6.436253E-2,-3.5358474E-2,9.4080195E-3],"split_indices":[572,0,552,0,0],"split_type":[0,0,0,0,0],"sum_hessian":[5.2470155E0,1.9068727E0,3.3401427E0,2.338973E0,1.0011697E0],"tree_param":{"num_deleted":"0","num_feature":"1000","num_nodes":"5","size_leaf_vector":"1"}},{"base_weights":[-8.410266E-3,-3.304645E-2,4.4297037E-1,3.3044722E-2,-3.0080343E-3],"categories":[],"categories_nodes":[],"categories_segments":[],"categories_sizes":[],"default_left":[0,0,1,0,0],"id":93,"left_children":[1,-1,3,-1,-1],"loss_changes":[2.0902576E0,0E0,5.0093645E-1,0E0,0E0],"parents":[2147483647,0,0,2,2],"right_children":[2,-1,4,-1,-1],"split_conditions":[2.821815E-1,-3.304645E-2,3.0636728E-2,3.3044722E-2,-3.0080343E-3],"split_indices":[765,0,165,0,0],"split_type":[0,0,0,0,0],"sum_hessian":[5.1028066E0,1.8966944E0,3.2061124E0,2.0183356E0,1.1877767E0],"tree_param":{"num_deleted":"0","num_feature":"1000","num_nodes":"5","size_leaf_vector":"1"}},{"base_weights":[-8.653369E-3,3.2426532E-2,-4.473499E-1,8.221517E-3,-3.4593057E-2],"categories":[],"categories_nodes":[],"categories_segments":[],"categories_sizes":[],"default_left":[0,0,0,0,0],"id":94,"left_children":[1,-1,3,-1,-1],"loss_changes":[2.0137897E0,0E0,7.38603E-1,0E0,0E0],"parents":[2147483647,0,0,2,2],"right_children":[2,-1,4,-1,-1],"split_conditions":[1.6389129E-1,3.2426532E-2,9.611867E-2,8.221517E-3,-3.4593057E-2],"split_indices":[586,0,543,0,0],"split_type":[0,0,0,0,0],"sum_hessian":[4.9786463E0,1.8015475E0,3.1770985E0,1.0007305E0,2.1763682E0],"tree_param":{"num_deleted":"0","num_feature":"1000","num_nodes":"5","size_leaf_vector":"1"}},{"base_weights":[-7.428116E-3,4.3316868E-1,-3.2310925E-2,3.2839254E-2,-5.899198E-3],"categories":[],"categories_nodes":[],"categories_segments":[],"categories_sizes":[],"default_left":[0,1,0,0,0],"id":95,"left_children":[1,3,-1,-1,-1],"loss_changes":[1.9255254E0,5.777407E-1,0E0,0E0,0E0],"parents":[2147483647,0,0,1,1],"right_children":[2,4,-1,-1,-1],"split_conditions":[7.549744E-1,3.2196034E-2,-3.2310925E-2,3.2839254E-2,-5.899198E-3],"split_indices":[91,165,0,0,0],"split_type":[0,0,0,0,0],"sum_hessian":[4.8468995E0,3.0589342E0,1.7879652E0,2.0397139E0,1.0192204E0],"tree_param":{"num_deleted":"0","num_feature":"1000","num_nodes":"5","size_leaf_vector":"1"}},{"base_weights":[-8.120571E-3,-3.203084E-2,4.2877457E-1,3.197233E-2,-2.5383679E-3],"categories":[],"categories_nodes":[],"categories_segments":[],"categories_sizes":[],"default_left":[0,0,1,0,0],"id":96,"left_children":[1,-1,3,-1,-1],"loss_changes":[1.8571461E0,0E0,4.3516195E-1,0E0,0E0],"parents":[2147483647,0,0,2,2],"right_children":[2,-1,4,-1,-1],"split_conditions":[2.821815E-1,-3.203084E-2,3.0636728E-2,3.197233E-2,-2.5383679E-3],"split_indices":[765,0,165,0,0],"split_type":[0,0,0,0,0],"sum_hessian":[4.7266316E0,1.7405423E0,2.9860895E0,1.8429798E0,1.1431097E0],"tree_param":{"num_deleted":"0","num_feature":"1000","num_nodes":"5","size_leaf_vector":"1"}},{"base_weights":[-8.322796E-3,3.1417396E-2,-4.3306246E-1,6.591148E-3,-3.3420585E-2],"categories":[],"categories_nodes":[],"categories_segments":[],"categories_sizes":[],"default_left":[0,0,0,0,0],"id":97,"left_children":[1,-1,3,-1,-1],"loss_changes":[1.7909262E0,0E0,6.147046E-1,0E0,0E0],"parents":[2147483647,0,0,2,2],"right_children":[2,-1,4,-1,-1],"split_conditions":[1.6389129E-1,3.1417396E-2,8.903356E-2,6.591148E-3,-3.3420585E-2],"split_indices":[586,0,614,0,0],"split_type":[0,0,0,0,0],"sum_hessian":[4.616509E0,1.6555392E0,2.96097E0,1.0001919E0,1.960778E0],"tree_param":{"num_deleted":"0","num_feature":"1000","num_nodes":"5","size_leaf_vector":"1"}},{"base_weights":[-7.2878585E-3,4.2031652E-1,-3.133741E-2,3.237864E-2,-4.6435753E-3],"categories":[],"categories_nodes":[],"categories_segments":[],"categories_sizes":[],"default_left":[0,0,0,0,0],"id":98,"left_children":[1,3,-1,-1,-1],"loss_changes":[1.7205917E0,5.095129E-1,0E0,0E0,0E0],"parents":[2147483647,0,0,1,1],"right_children":[2,4,-1,-1,-1],"split_conditions":[7.549744E-1,5.537187E-2,-3.133741E-2,3.237864E-2,-4.6435753E-3],"split_indices":[91,639,0,0,0],"split_type":[0,0,0,0,0],"sum_hessian":[4.501123E0,2.8531291E0,1.6479936E0,1.7959582E0,1.057171E0],"tree_param":{"num_deleted":"0","num_feature":"1000","num_nodes":"5","size_leaf_vector":"1"}},{"base_weights":[-7.7027828E-3,3.0776918E-2,-4.2466024E-1,5.3913947E-3,-3.2575194E-2],"categories":[],"categories_nodes":[],"categories_segments":[],"categories_sizes":[],"default_left":[0,0,0,0,0],"id":99,"left_children":[1,-1,3,-1,-1],"loss_changes":[1.6630675E0,0E0,5.320977E-1,0E0,0E0],"parents":[2147483647,0,0,2,2],"right_children":[2,-1,4,-1,-1],"split_conditions":[1.6389129E-1,3.0776918E-2,9.155208E-2,5.3913947E-3,-3.2575194E-2],"split_indices":[586,0,614,0,0],"split_type":[0,0,0,0,0],"sum_hessian":[4.393849E0,1.5703416E0,2.8235073E0,1.0002353E0,1.8232721E0],"tree_param":{"num_deleted":"0","num_feature":"1000","num_nodes":"5","size_leaf_vector":"1"}},{"base_weights":[-6.827062E-3,3.044991E-2,-4.1949052E-1,-3.0708015E-2,-9.910597E-5],"categories":[],"categories_nodes":[],"categories_segments":[],"categories_sizes":[],"default_left":[0,0,0,0,0],"id":100,"left_children":[1,-1,3,-1,-1],"loss_changes":[1.5993962E0,0E0,3.042705E-1,0E0,0E0],"parents":[2147483647,0,0,2,2],"right_children":[2,-1,4,-1,-1],"split_conditions":[2.5144422E-1,3.044991E-2,2.821815E-1,-3.0708015E-2,-9.910597E-5],"split_indices":[572,0,765,0,0],"split_type":[0,0,0,0,0],"sum_hessian":[4.2883763E0,1.529741E0,2.758635E0,1.5601689E0,1.1984662E0],"tree_param":{"num_deleted":"0","num_feature":"1000","num_nodes":"5","size_leaf_vector":"1"}},{"base_weights":[-6.673295E-3,4.081272E-1,-3.0385569E-2,3.1470805E-2,-4.4284305E-3],"categories":[],"categories_nodes":[],"categories_segments":[],"categories_sizes":[],"default_left":[0,0,0,0,0],"id":101,"left_children":[1,3,-1,-1,-1],"loss_changes":[1.5436062E0,4.5944983E-1,0E0,0E0,0E0],"parents":[2147483647,0,0,1,1],"right_children":[2,4,-1,-1,-1],"split_conditions":[7.549744E-1,5.537187E-2,-3.0385569E-2,3.1470805E-2,-4.4284305E-3],"split_indices":[91,639,0,0,0],"split_type":[0,0,0,0,0],"sum_hessian":[4.196655E0,2.672925E0,1.52373E0,1.6642559E0,1.008669E0],"tree_param":{"num_deleted":"0","num_feature":"1000","num_nodes":"5","size_leaf_vector":"1"}},{"base_weights":[-7.090449E-3,2.986047E-2,-4.127599E-1,3.8338483E-3,-3.1352565E-2],"categories":[],"categories_nodes":[],"categories_segments":[],"categories_sizes":[],"default_left":[0,0,0,0,0],"id":102,"left_children":[1,-1,3,-1,-1],"loss_changes":[1.4967749E0,0E0,4.3015403E-1,0E0,0E0],"parents":[2147483647,0,0,2,2],"right_children":[2,-1,4,-1,-1],"split_conditions":[1.6389129E-1,2.986047E-2,7.788984E-2,3.8338483E-3,-3.1352565E-2],"split_indices":[586,0,639,0,0],"split_type":[0,0,0,0,0],"sum_hessian":[4.1001077E0,1.457221E0,2.6428866E0,1.0003327E0,1.6425539E0],"tree_param":{"num_deleted":"0","num_feature":"1000","num_nodes":"5","size_leaf_vector":"1"}},{"base_weights":[-6.4251143E-3,2.4216708E-2,-2.4985187E-2],"categories":[],"categories_nodes":[],"categories_segments":[],"categories_sizes":[],"default_left":[0,0,0],"id":103,"left_children":[1,-1,-1],"loss_changes":[1.4542243E0,0E0,0E0],"parents":[2147483647,0,0],"right_children":[2,-1,-1],"split_conditions":[3.1597108E-1,2.4216708E-2,-2.4985187E-2],"split_indices":[870,0,0],"split_type":[0,0,0],"sum_hessian":[4.0074167E0,2.017928E0,1.9894888E0],"tree_param":{"num_deleted":"0","num_feature":"1000","num_nodes":"3","size_leaf_vector":"1"}},{"base_weights":[-6.3517424E-3,3.9837134E-1,-2.9542444E-2,3.0139018E-2,-2.5441537E-3],"categories":[],"categories_nodes":[],"categories_segments":[],"categories_sizes":[],"default_left":[0,1,0,0,0],"id":104,"left_children":[1,3,-1,-1,-1],"loss_changes":[1.4034103E0,3.5343593E-1,0E0,0E0,0E0],"parents":[2147483647,0,0,1,1],"right_children":[2,4,-1,-1,-1],"split_conditions":[7.549744E-1,3.052099E-2,-2.9542444E-2,3.0139018E-2,-2.5441537E-3],"split_indices":[91,165,0,0,0],"split_type":[0,0,0,0,0],"sum_hessian":[3.9375875E0,2.5147426E0,1.4228446E0,1.4934802E0,1.0212625E0],"tree_param":{"num_deleted":"0","num_feature":"1000","num_nodes":"5","size_leaf_vector":"1"}},{"base_weights":[-6.528689E-3,2.9011464E-2,-4.0138775E-1,-3.0113017E-2,2.4326062E-3],"categories":[],"categories_nodes":[],"categories_segments":[],"categories_sizes":[],"default_left":[0,0,0,0,0],"id":105,"left_children":[1,-1,3,-1,-1],"loss_changes":[1.3571855E0,0E0,3.4495634E-1,0E0,0E0],"parents":[2147483647,0,0,2,2],"right_children":[2,-1,4,-1,-1],"split_conditions":[1.6389129E-1,2.9011464E-2,3.5993252E-2,-3.0113017E-2,2.4326062E-3],"split_indices":[586,0,341,0,0],"split_type":[0,0,0,0,0],"sum_hessian":[3.8526242E0,1.3608906E0,2.4917336E0,1.4889235E0,1.0028099E0],"tree_param":{"num_deleted":"0","num_feature":"1000","num_nodes":"5","size_leaf_vector":"1"}},{"base_weights":[-6.051679E-3,-2.8968086E-2,3.9106193E-1,2.918813E-2,-1.3559785E-3],"categories":[],"categories_nodes":[],"categories_segments":[],"categories_sizes":[],"default_left":[0,0,1,0,0],"id":106,"left_children":[1,-1,3,-1,-1],"loss_changes":[1.3126334E0,0E0,2.9104757E-1,0E0,0E0],"parents":[2147483647,0,0,2,2],"right_children":[2,-1,4,-1,-1],"split_conditions":[2.821815E-1,-2.8968086E-2,2.9112598E-2,2.918813E-2,-1.3559785E-3],"split_indices":[765,0,165,0,0],"split_type":[0,0,0,0,0],"sum_hessian":[3.7703733E0,1.3550973E0,2.4152763E0,1.3823332E0,1.032943E0],"tree_param":{"num_deleted":"0","num_feature":"1000","num_nodes":"5","size_leaf_vector":"1"}},{"base_weights":[-6.0824854E-3,2.3171065E-2,-2.4036152E-2],"categories":[],"categories_nodes":[],"categories_segments":[],"categories_sizes":[],"default_left":[0,0,0],"id":107,"left_children":[1,-1,-1],"loss_changes":[1.2685518E0,0E0,0E0],"parents":[2147483647,0,0],"right_children":[2,-1,-1],"split_conditions":[3.1597108E-1,2.3171065E-2,-2.4036152E-2],"split_indices":[870,0,0],"split_type":[0,0,0],"sum_hessian":[3.692822E0,1.8683399E0,1.8244822E0],"tree_param":{"num_deleted":"0","num_feature":"1000","num_nodes":"3","size_leaf_vector":"1"}},{"base_weights":[-6.047418E-3,2.8200952E-2,-3.909346E-1,-2.838615E-2,-2.3479853E-4],"categories":[],"categories_nodes":[],"categories_segments":[],"categories_sizes":[],"default_left":[0,0,0,0,0],"id":108,"left_children":[1,-1,3,-1,-1],"loss_changes":[1.2367581E0,0E0,2.2646254E-1,0E0,0E0],"parents":[2147483647,0,0,2,2],"right_children":[2,-1,4,-1,-1],"split_conditions":[2.5144422E-1,2.8200952E-2,2.821815E-1,-2.838615E-2,-2.3479853E-4],"split_indices":[572,0,765,0,0],"split_type":[0,0,0,0,0],"sum_hessian":[3.6317754E0,1.2761791E0,2.3555963E0,1.2936109E0,1.0619854E0],"tree_param":{"num_deleted":"0","num_feature":"1000","num_nodes":"5","size_leaf_vector":"1"}},{"base_weights":[-5.930559E-3,2.7925504E-2,-3.870988E-1,8.5362245E-4,-2.8542718E-2],"categories":[],"categories_nodes":[],"categories_segments":[],"categories_sizes":[],"default_left":[0,0,0,0,0],"id":109,"left_children":[1,-1,3,-1,-1],"loss_changes":[1.1974719E0,0E0,2.5580537E-1,0E0,0E0],"parents":[2147483647,0,0,2,2],"right_children":[2,-1,4,-1,-1],"split_conditions":[1.6389129E-1,2.7925504E-2,7.8244805E-2,8.5362245E-4,-2.8542718E-2],"split_indices":[586,0,425,0,0],"split_type":[0,0,0,0,0],"sum_hessian":[3.5609465E0,1.2478498E0,2.3130968E0,1.0064646E0,1.306632E0],"tree_param":{"num_deleted":"0","num_feature":"1000","num_nodes":"5","size_leaf_vector":"1"}},{"base_weights":[-5.6784474E-3,3.774357E-1,-2.7869195E-2,2.7894167E-2,-6.9257506E-4],"categories":[],"categories_nodes":[],"categories_segments":[],"categories_sizes":[],"default_left":[0,1,0,0,0],"id":110,"left_children":[1,3,-1,-1,-1],"loss_changes":[1.1595681E0,2.3695722E-1,0E0,0E0,0E0],"parents":[2147483647,0,0,1,1],"right_children":[2,4,-1,-1,-1],"split_conditions":[7.549744E-1,2.8852995E-2,-2.7869195E-2,2.7894167E-2,-6.9257506E-4],"split_indices":[91,165,0,0,0],"split_type":[0,0,0,0,0],"sum_hessian":[3.4907448E0,2.2465649E0,1.2441801E0,1.24613E0,1.0004348E0],"tree_param":{"num_deleted":"0","num_feature":"1000","num_nodes":"5","size_leaf_vector":"1"}},{"base_weights":[-5.626431E-3,2.2254841E-2,-2.3165705E-2],"categories":[],"categories_nodes":[],"categories_segments":[],"categories_sizes":[],"default_left":[0,0,0],"id":111,"left_children":[1,-1,-1],"loss_changes":[1.1186391E0,0E0,0E0],"parents":[2147483647,0,0],"right_children":[2,-1,-1],"split_conditions":[3.1597108E-1,2.2254841E-2,-2.3165705E-2],"split_indices":[870,0,0],"split_type":[0,0,0],"sum_hessian":[3.4229848E0,1.738474E0,1.6845108E0],"tree_param":{"num_deleted":"0","num_feature":"1000","num_nodes":"3","size_leaf_vector":"1"}},{"base_weights":[-5.6287227E-3,2.7144505E-2,-3.7678576E-1,-1.230512E-4,-2.7377341E-2],"categories":[],"categories_nodes":[],"categories_segments":[],"categories_sizes":[],"default_left":[0,0,0,0,0],"id":112,"left_children":[1,-1,3,-1,-1],"loss_changes":[1.0940297E0,0E0,2.0294818E-1,0E0,0E0],"parents":[2147483647,0,0,2,2],"right_children":[2,-1,4,-1,-1],"split_conditions":[1.6389129E-1,2.7144505E-2,1.7028455E-1,-1.230512E-4,-2.7377341E-2],"split_indices":[586,0,639,0,0],"split_type":[0,0,0,0,0],"sum_hessian":[3.3690324E0,1.1729211E0,2.1961114E0,1.0057727E0,1.1903389E0],"tree_param":{"num_deleted":"0","num_feature":"1000","num_nodes":"5","size_leaf_vector":"1"}},{"base_weights":[-5.510077E-3,3.6790898E-1,-2.7108112E-2,3.3233417E-4,2.6716072E-2],"categories":[],"categories_nodes":[],"categories_segments":[],"categories_sizes":[],"default_left":[0,1,0,0,0],"id":113,"left_children":[1,3,-1,-1,-1],"loss_changes":[1.0624312E0,1.8492484E-1,0E0,0E0,0E0],"parents":[2147483647,0,0,1,1],"right_children":[2,4,-1,-1,-1],"split_conditions":[7.549744E-1,3.9737828E-2,-2.7108112E-2,3.3233417E-4,2.6716072E-2],"split_indices":[91,586,0,0,0],"split_type":[0,0,0,0,0],"sum_hessian":[3.3062944E0,2.1350782E0,1.1712162E0,1.0013037E0,1.1337745E0],"tree_param":{"num_deleted":"0","num_feature":"1000","num_nodes":"5","size_leaf_vector":"1"}},{"base_weights":[-5.3299293E-3,2.6603637E-2,-3.693521E-1,-2.6585117E-2,-6.262045E-4],"categories":[],"categories_nodes":[],"categories_segments":[],"categories_sizes":[],"default_left":[0,0,0,0,0],"id":114,"left_children":[1,-1,3,-1,-1],"loss_changes":[1.0270946E0,0E0,1.7416841E-1,0E0,0E0],"parents":[2147483647,0,0,2,2],"right_children":[2,-1,4,-1,-1],"split_conditions":[2.5144422E-1,2.6603637E-2,1.3563286E-1,-2.6585117E-2,-6.262045E-4],"split_indices":[572,0,765,0,0],"split_type":[0,0,0,0,0],"sum_hessian":[3.2457058E0,1.1242849E0,2.121421E0,1.1212105E0,1.0002105E0],"tree_param":{"num_deleted":"0","num_feature":"1000","num_nodes":"5","size_leaf_vector":"1"}},{"base_weights":[-5.276168E-3,2.6361195E-2,-3.6584145E-1,-8.926362E-4,-2.6210353E-2],"categories":[],"categories_nodes":[],"categories_segments":[],"categories_sizes":[],"default_left":[0,0,1,0,0],"id":115,"left_children":[1,-1,3,-1,-1],"loss_changes":[9.9686766E-1,0E0,1.607723E-1,0E0,0E0],"parents":[2147483647,0,0,2,2],"right_children":[2,-1,4,-1,-1],"split_conditions":[3.0611926E-1,2.6361195E-2,3.998359E-2,-8.926362E-4,-2.6210353E-2],"split_indices":[98,0,891,0,0],"split_type":[0,0,0,0,0],"sum_hessian":[3.1874118E0,1.1002682E0,2.0871437E0,1.0007817E0,1.0863619E0],"tree_param":{"num_deleted":"0","num_feature":"1000","num_nodes":"5","size_leaf_vector":"1"}},{"base_weights":[-5.2600172E-3,3.57113E-1,-2.630727E-2,2.5518721E-2,1.1427589E-3],"categories":[],"categories_nodes":[],"categories_segments":[],"categories_sizes":[],"default_left":[0,0,0,0,0],"id":116,"left_children":[1,3,-1,-1,-1],"loss_changes":[9.6770805E-1,1.4366531E-1,0E0,0E0,0E0],"parents":[2147483647,0,0,1,1],"right_children":[2,4,-1,-1,-1],"split_conditions":[7.549744E-1,2.5909502E-2,-2.630727E-2,2.5518721E-2,1.1427589E-3],"split_indices":[91,177,0,0,0],"split_type":[0,0,0,0,0],"sum_hessian":[3.1313634E0,2.0320823E0,1.0992811E0,1.032006E0,1.0000764E0],"tree_param":{"num_deleted":"0","num_feature":"1000","num_nodes":"5","size_leaf_vector":"1"}},{"base_weights":[-4.9858494E-3,2.107956E-2,-2.2015609E-2],"categories":[],"categories_nodes":[],"categories_segments":[],"categories_sizes":[],"default_left":[0,0,0],"id":117,"left_children":[1,-1,-1],"loss_changes":[9.427843E-1,0E0,0E0],"parents":[2147483647,0,0],"right_children":[2,-1,-1],"split_conditions":[3.1597108E-1,2.107956E-2,-2.2015609E-2],"split_indices":[870,0,0],"split_type":[0,0,0],"sum_hessian":[3.0772836E0,1.5701964E0,1.5070871E0],"tree_param":{"num_deleted":"0","num_feature":"1000","num_nodes":"3","size_leaf_vector":"1"}},{"base_weights":[-5.0291964E-3,2.564965E-2,-1.7862642E-2],"categories":[],"categories_nodes":[],"categories_segments":[],"categories_sizes":[],"default_left":[0,0,0],"id":118,"left_children":[1,-1,-1],"loss_changes":[9.1889185E-1,0E0,0E0],"parents":[2147483647,0,0],"right_children":[2,-1,-1],"split_conditions":[1.6389129E-1,2.564965E-2,-1.7862642E-2],"split_indices":[586,0,0],"split_type":[0,0,0],"sum_hessian":[3.0317059E0,1.0423137E0,1.9893922E0],"tree_param":{"num_deleted":"0","num_feature":"1000","num_nodes":"3","size_leaf_vector":"1"}},{"base_weights":[-2.8342903E-3,2.5501607E-2,-1.7670682E-2],"categories":[],"categories_nodes":[],"categories_segments":[],"categories_sizes":[],"default_left":[0,0,0],"id":119,"left_children":[1,-1,-1],"loss_changes":[8.9714056E-1,0E0,0E0],"parents":[2147483647,0,0],"right_children":[2,-1,-1],"split_conditions":[3.0611926E-1,2.5501607E-2,-1.7670682E-2],"split_indices":[98,0,0],"split_type":[0,0,0],"sum_hessian":[2.987135E0,1.0281769E0,1.9589579E0],"tree_param":{"num_deleted":"0","num_feature":"1000","num_nodes":"3","size_leaf_vector":"1"}},{"base_weights":[-6.948145E-4,-2.5381684E-2,1.74891E-2],"categories":[],"categories_nodes":[],"categories_segments":[],"categories_sizes":[],"default_left":[0,0,0],"id":120,"left_children":[1,-1,-1],"loss_changes":[8.7824357E-1,0E0,0E0],"parents":[2147483647,0,0],"right_children":[2,-1,-1],"split_conditions":[2.821815E-1,-2.5381684E-2,1.74891E-2],"split_indices":[765,0,0],"split_type":[0,0,0],"sum_hessian":[2.943723E0,1.0199834E0,1.9237396E0],"tree_param":{"num_deleted":"0","num_feature":"1000","num_nodes":"3","size_leaf_vector":"1"}},{"base_weights":[-2.7353545E-3,1.724045E-2,-2.517111E-2],"categories":[],"categories_nodes":[],"categories_segments":[],"categories_sizes":[],"default_left":[0,0,0],"id":121,"left_children":[1,-1,-1],"loss_changes":[8.5241383E-1,0E0,0E0],"parents":[2147483647,0,0],"right_children":[2,-1,-1],"split_conditions":[7.549744E-1,1.724045E-2,-2.517111E-2],"split_indices":[91,0,0],"split_type":[0,0,0],"sum_hessian":[2.9010737E0,1.8961898E0,1.004884E0],"tree_param":{"num_deleted":"0","num_feature":"1000","num_nodes":"3","size_leaf_vector":"1"}},{"base_weights":[-4.722456E-3,2.0115783E-2,-2.104347E-2],"categories":[],"categories_nodes":[],"categories_segments":[],"categories_sizes":[],"default_left":[0,0,0],"id":122,"left_children":[1,-1,-1],"loss_changes":[8.23085E-1,0E0,0E0],"parents":[2147483647,0,0],"right_children":[2,-1,-1],"split_conditions":[3.1597108E-1,2.0115783E-2,-2.104347E-2],"split_indices":[870,0,0],"split_type":[0,0,0],"sum_hessian":[2.8595653E0,1.4624058E0,1.3971595E0],"tree_param":{"num_deleted":"0","num_feature":"1000","num_nodes":"3","size_leaf_vector":"1"}},{"base_weights":[-4.7829514E-3,1.9946642E-2,-2.074867E-2],"categories":[],"categories_nodes":[],"categories_segments":[],"categories_sizes":[],"default_left":[0,0,0],"id":123,"left_children":[1,-1,-1],"loss_changes":[7.9809046E-1,0E0,0E0],"parents":[2147483647,0,0],"right_children":[2,-1,-1],"split_conditions":[3.3771306E-1,1.9946642E-2,-2.074867E-2],"split_indices":[552,0,0],"split_type":[0,0,0],"sum_hessian":[2.8197012E0,1.4348975E0,1.3848038E0],"tree_param":{"num_deleted":"0","num_feature":"1000","num_nodes":"3","size_leaf_vector":"1"}},{"base_weights":[-4.8064194E-3,1.9551167E-2,-2.0437866E-2],"categories":[],"categories_nodes":[],"categories_segments":[],"categories_sizes":[],"default_left":[0,0,0],"id":124,"left_children":[1,-1,-1],"loss_changes":[7.643959E-1,0E0,0E0],"parents":[2147483647,0,0],"right_children":[2,-1,-1],"split_conditions":[3.1597108E-1,1.9551167E-2,-2.0437866E-2],"split_indices":[870,0,0],"split_type":[0,0,0],"sum_hessian":[2.7809765E0,1.4207715E0,1.3602049E0],"tree_param":{"num_deleted":"0","num_feature":"1000","num_nodes":"3","size_leaf_vector":"1"}},{"base_weights":[-4.85467E-3,1.9389875E-2,-2.0151982E-2],"categories":[],"categories_nodes":[],"categories_segments":[],"categories_sizes":[],"default_left":[0,0,0],"id":125,"left_children":[1,-1,-1],"loss_changes":[7.4165297E-1,0E0,0E0],"parents":[2147483647,0,0],"right_children":[2,-1,-1],"split_conditions":[3.3771306E-1,1.9389875E-2,-2.0151982E-2],"split_indices":[552,0,0],"split_type":[0,0,0],"sum_hessian":[2.7439206E0,1.3946934E0,1.3492271E0],"tree_param":{"num_deleted":"0","num_feature":"1000","num_nodes":"3","size_leaf_vector":"1"}},{"base_weights":[-4.866202E-3,1.900338E-2,-1.9848233E-2],"categories":[],"categories_nodes":[],"categories_segments":[],"categories_sizes":[],"default_left":[0,0,0],"id":126,"left_children":[1,-1,-1],"loss_changes":[7.1051365E-1,0E0,0E0],"parents":[2147483647,0,0],"right_children":[2,-1,-1],"split_conditions":[3.1597108E-1,1.900338E-2,-1.9848233E-2],"split_indices":[870,0,0],"split_type":[0,0,0],"sum_hessian":[2.707898E0,1.3819163E0,1.3259816E0],"tree_param":{"num_deleted":"0","num_feature":"1000","num_nodes":"3","size_leaf_vector":"1"}},{"base_weights":[-4.9020257E-3,1.8849684E-2,-1.95711E-2],"categories":[],"categories_nodes":[],"categories_segments":[],"categories_sizes":[],"default_left":[0,0,0],"id":127,"left_children":[1,-1,-1],"loss_changes":[6.897989E-1,0E0,0E0],"parents":[2147483647,0,0],"right_children":[2,-1,-1],"split_conditions":[3.3771306E-1,1.8849684E-2,-1.95711E-2],"split_indices":[552,0,0],"split_type":[0,0,0],"sum_hessian":[2.673424E0,1.3571535E0,1.3162706E0],"tree_param":{"num_deleted":"0","num_feature":"1000","num_nodes":"3","size_leaf_vector":"1"}},{"base_weights":[-4.9008904E-3,1.847208E-2,-1.9274186E-2],"categories":[],"categories_nodes":[],"categories_segments":[],"categories_sizes":[],"default_left":[0,0,0],"id":128,"left_children":[1,-1,-1],"loss_changes":[6.609828E-1,0E0,0E0],"parents":[2147483647,0,0],"right_children":[2,-1,-1],"split_conditions":[3.1597108E-1,1.847208E-2,-1.9274186E-2],"split_indices":[870,0,0],"split_type":[0,0,0],"sum_hessian":[2.6398911E0,1.3456146E0,1.2942766E0],"tree_param":{"num_deleted":"0","num_feature":"1000","num_nodes":"3","size_leaf_vector":"1"}},{"base_weights":[-4.922452E-3,1.8325789E-2,-1.9005578E-2],"categories":[],"categories_nodes":[],"categories_segments":[],"categories_sizes":[],"default_left":[0,0,0],"id":129,"left_children":[1,-1,-1],"loss_changes":[6.420986E-1,0E0,0E0],"parents":[2147483647,0,0],"right_children":[2,-1,-1],"split_conditions":[3.3771306E-1,1.8325789E-2,-1.9005578E-2],"split_indices":[552,0,0],"split_type":[0,0,0],"sum_hessian":[2.6078022E0,1.3220682E0,1.2857339E0],"tree_param":{"num_deleted":"0","num_feature":"1000","num_nodes":"3","size_leaf_vector":"1"}},{"base_weights":[-4.9120607E-3,1.8624151E-2,-1.8062793E-2],"categories":[],"categories_nodes":[],"categories_segments":[],"categories_sizes":[],"default_left":[0,0,0],"id":130,"left_children":[1,-1,-1],"loss_changes":[6.155449E-1,0E0,0E0],"parents":[2147483647,0,0],"right_children":[2,-1,-1],"split_conditions":[5.537187E-2,1.8624151E-2,-1.8062793E-2],"split_indices":[639,0,0],"split_type":[0,0,0],"sum_hessian":[2.576552E0,1.2293189E0,1.347233E0],"tree_param":{"num_deleted":"0","num_feature":"1000","num_nodes":"3","size_leaf_vector":"1"}},{"base_weights":[-4.545544E-3,1.793805E-2,-1.8673563E-2],"categories":[],"categories_nodes":[],"categories_segments":[],"categories_sizes":[],"default_left":[0,0,0],"id":131,"left_children":[1,-1,-1],"loss_changes":[6.0936666E-1,0E0,0E0],"parents":[2147483647,0,0],"right_children":[2,-1,-1],"split_conditions":[3.1597108E-1,1.793805E-2,-1.8673563E-2],"split_indices":[870,0,0],"split_type":[0,0,0],"sum_hessian":[2.5467331E0,1.2970203E0,1.2497127E0],"tree_param":{"num_deleted":"0","num_feature":"1000","num_nodes":"3","size_leaf_vector":"1"}},{"base_weights":[-4.567806E-3,1.779759E-2,-1.841493E-2],"categories":[],"categories_nodes":[],"categories_segments":[],"categories_sizes":[],"default_left":[0,0,0],"id":132,"left_children":[1,-1,-1],"loss_changes":[5.923031E-1,0E0,0E0],"parents":[2147483647,0,0],"right_children":[2,-1,-1],"split_conditions":[3.3771306E-1,1.779759E-2,-1.841493E-2],"split_indices":[552,0,0],"split_type":[0,0,0],"sum_hessian":[2.5171149E0,1.2748784E0,1.2422364E0],"tree_param":{"num_deleted":"0","num_feature":"1000","num_nodes":"3","size_leaf_vector":"1"}},{"base_weights":[-4.55461E-3,1.817231E-2,-1.7610844E-2],"categories":[],"categories_nodes":[],"categories_segments":[],"categories_sizes":[],"default_left":[0,0,0],"id":133,"left_children":[1,-1,-1],"loss_changes":[5.743006E-1,0E0,0E0],"parents":[2147483647,0,0],"right_children":[2,-1,-1],"split_conditions":[5.537187E-2,1.817231E-2,-1.7610844E-2],"split_indices":[639,0,0],"split_type":[0,0,0],"sum_hessian":[2.488266E0,1.1867207E0,1.3015451E0],"tree_param":{"num_deleted":"0","num_feature":"1000","num_nodes":"3","size_leaf_vector":"1"}},{"base_weights":[-4.1990266E-3,1.742524E-2,-1.809649E-2],"categories":[],"categories_nodes":[],"categories_segments":[],"categories_sizes":[],"default_left":[0,0,0],"id":134,"left_children":[1,-1,-1],"loss_changes":[5.627456E-1,0E0,0E0],"parents":[2147483647,0,0],"right_children":[2,-1,-1],"split_conditions":[3.1597108E-1,1.742524E-2,-1.809649E-2],"split_indices":[870,0,0],"split_type":[0,0,0],"sum_hessian":[2.4604185E0,1.2519004E0,1.208518E0],"tree_param":{"num_deleted":"0","num_feature":"1000","num_nodes":"3","size_leaf_vector":"1"}},{"base_weights":[-4.220118E-3,1.7290449E-2,-1.7847471E-2],"categories":[],"categories_nodes":[],"categories_segments":[],"categories_sizes":[],"default_left":[0,0,0],"id":135,"left_children":[1,-1,-1],"loss_changes":[5.472983E-1,0E0,0E0],"parents":[2147483647,0,0],"right_children":[2,-1,-1],"split_conditions":[3.3771306E-1,1.7290449E-2,-1.7847471E-2],"split_indices":[552,0,0],"split_type":[0,0,0],"sum_hessian":[2.4330394E0,1.2310413E0,1.2019982E0],"tree_param":{"num_deleted":"0","num_feature":"1000","num_nodes":"3","size_leaf_vector":"1"}},{"base_weights":[-4.2058825E-3,1.7741127E-2,-1.717958E-2],"categories":[],"categories_nodes":[],"categories_segments":[],"categories_sizes":[],"default_left":[0,0,0],"id":136,"left_children":[1,-1,-1],"loss_changes":[5.369757E-1,0E0,0E0],"parents":[2147483647,0,0],"right_children":[2,-1,-1],"split_conditions":[5.537187E-2,1.7741127E-2,-1.717958E-2],"split_indices":[639,0,0],"split_type":[0,0,0],"sum_hessian":[2.4063575E0,1.1472372E0,1.2591203E0],"tree_param":{"num_deleted":"0","num_feature":"1000","num_nodes":"3","size_leaf_vector":"1"}},{"base_weights":[-3.859983E-3,1.6932834E-2,-1.7542047E-2],"categories":[],"categories_nodes":[],"categories_segments":[],"categories_sizes":[],"default_left":[0,0,0],"id":137,"left_children":[1,-1,-1],"loss_changes":[5.205525E-1,0E0,0E0],"parents":[2147483647,0,0],"right_children":[2,-1,-1],"split_conditions":[3.1597108E-1,1.6932834E-2,-1.7542047E-2],"split_indices":[870,0,0],"split_type":[0,0,0],"sum_hessian":[2.3803022E0,1.20993E0,1.1703722E0],"tree_param":{"num_deleted":"0","num_feature":"1000","num_nodes":"3","size_leaf_vector":"1"}},{"base_weights":[-3.8772367E-3,1.735264E-2,-1.6783806E-2],"categories":[],"categories_nodes":[],"categories_segments":[],"categories_sizes":[],"default_left":[0,0,0],"id":138,"left_children":[1,-1,-1],"loss_changes":[5.07143E-1,0E0,0E0],"parents":[2147483647,0,0],"right_children":[2,-1,-1],"split_conditions":[5.537187E-2,1.735264E-2,-1.6783806E-2],"split_indices":[639,0,0],"split_type":[0,0,0],"sum_hessian":[2.3549614E0,1.1221431E0,1.2328182E0],"tree_param":{"num_deleted":"0","num_feature":"1000","num_nodes":"3","size_leaf_vector":"1"}},{"base_weights":[-3.5380516E-3,1.6793635E-2,-1.7273346E-2],"categories":[],"categories_nodes":[],"categories_segments":[],"categories_sizes":[],"default_left":[0,0,0],"id":139,"left_children":[1,-1,-1],"loss_changes":[5.0253373E-1,0E0,0E0],"parents":[2147483647,0,0],"right_children":[2,-1,-1],"split_conditions":[3.3771306E-1,1.6793635E-2,-1.7273346E-2],"split_indices":[552,0,0],"split_type":[0,0,0],"sum_hessian":[2.3303442E0,1.178367E0,1.1519772E0],"tree_param":{"num_deleted":"0","num_feature":"1000","num_nodes":"3","size_leaf_vector":"1"}},{"base_weights":[-3.5328625E-3,1.646017E-2,-1.7010078E-2],"categories":[],"categories_nodes":[],"categories_segments":[],"categories_sizes":[],"default_left":[0,0,0],"id":140,"left_children":[1,-1,-1],"loss_changes":[4.8231962E-1,0E0,0E0],"parents":[2147483647,0,0],"right_children":[2,-1,-1],"split_conditions":[3.1597108E-1,1.646017E-2,-1.7010078E-2],"split_indices":[870,0,0],"split_type":[0,0,0],"sum_hessian":[2.30582E0,1.170835E0,1.1349849E0],"tree_param":{"num_deleted":"0","num_feature":"1000","num_nodes":"3","size_leaf_vector":"1"}},{"base_weights":[-3.5518329E-3,1.6955322E-2,-1.6387122E-2],"categories":[],"categories_nodes":[],"categories_segments":[],"categories_sizes":[],"default_left":[0,0,0],"id":141,"left_children":[1,-1,-1],"loss_changes":[4.7576007E-1,0E0,0E0],"parents":[2147483647,0,0],"right_children":[2,-1,-1],"split_conditions":[5.537187E-2,1.6955322E-2,-1.6387122E-2],"split_indices":[639,0,0],"split_type":[0,0,0],"sum_hessian":[2.2823088E0,1.0871836E0,1.1951251E0],"tree_param":{"num_deleted":"0","num_feature":"1000","num_nodes":"3","size_leaf_vector":"1"}},{"base_weights":[-3.221228E-3,1.6329726E-2,-1.67548E-2],"categories":[],"categories_nodes":[],"categories_segments":[],"categories_sizes":[],"default_left":[0,0,0],"id":142,"left_children":[1,-1,-1],"loss_changes":[4.6618497E-1,0E0,0E0],"parents":[2147483647,0,0],"right_children":[2,-1,-1],"split_conditions":[3.3771306E-1,1.6329726E-2,-1.67548E-2],"split_indices":[552,0,0],"split_type":[0,0,0],"sum_hessian":[2.2592046E0,1.1410973E0,1.1181073E0],"tree_param":{"num_deleted":"0","num_feature":"1000","num_nodes":"3","size_leaf_vector":"1"}},{"base_weights":[-3.2159882E-3,1.6592037E-2,-1.6016698E-2],"categories":[],"categories_nodes":[],"categories_segments":[],"categories_sizes":[],"default_left":[0,0,0],"id":143,"left_children":[1,-1,-1],"loss_changes":[4.5017865E-1,0E0,0E0],"parents":[2147483647,0,0],"right_children":[2,-1,-1],"split_conditions":[5.537187E-2,1.6592037E-2,-1.6016698E-2],"split_indices":[639,0,0],"split_type":[0,0,0],"sum_hessian":[2.2364304E0,1.0648826E0,1.1715478E0],"tree_param":{"num_deleted":"0","num_feature":"1000","num_nodes":"3","size_leaf_vector":"1"}},{"base_weights":[-2.8951492E-3,1.6003458E-2,-1.6477706E-2],"categories":[],"categories_nodes":[],"categories_segments":[],"categories_sizes":[],"default_left":[0,0,0],"id":144,"left_children":[1,-1,-1],"loss_changes":[4.4461322E-1,0E0,0E0],"parents":[2147483647,0,0],"right_children":[2,-1,-1],"split_conditions":[3.1597108E-1,1.6003458E-2,-1.6477706E-2],"split_indices":[870,0,0],"split_type":[0,0,0],"sum_hessian":[2.2145565E0,1.1237199E0,1.0908366E0],"tree_param":{"num_deleted":"0","num_feature":"1000","num_nodes":"3","size_leaf_vector":"1"}},{"base_weights":[-2.9191088E-3,1.5883975E-2,-1.6257044E-2],"categories":[],"categories_nodes":[],"categories_segments":[],"categories_sizes":[],"default_left":[0,0,0],"id":145,"left_children":[1,-1,-1],"loss_changes":[4.3312642E-1,0E0,0E0],"parents":[2147483647,0,0],"right_children":[2,-1,-1],"split_conditions":[3.3771306E-1,1.5883975E-2,-1.6257044E-2],"split_indices":[552,0,0],"split_type":[0,0,0],"sum_hessian":[2.192871E0,1.1062703E0,1.0866008E0],"tree_param":{"num_deleted":"0","num_feature":"1000","num_nodes":"3","size_leaf_vector":"1"}},{"base_weights":[-2.9123537E-3,1.6226081E-2,-1.5651911E-2],"categories":[],"categories_nodes":[],"categories_segments":[],"categories_sizes":[],"default_left":[0,0,0],"id":146,"left_children":[1,-1,-1],"loss_changes":[4.2365962E-1,0E0,0E0],"parents":[2147483647,0,0],"right_children":[2,-1,-1],"split_conditions":[5.537187E-2,1.6226081E-2,-1.5651911E-2],"split_indices":[639,0,0],"split_type":[0,0,0],"sum_hessian":[2.1716936E0,1.0337895E0,1.137904E0],"tree_param":{"num_deleted":"0","num_feature":"1000","num_nodes":"3","size_leaf_vector":"1"}},{"base_weights":[-2.5980398E-3,1.55706275E-2,-1.5991395E-2],"categories":[],"categories_nodes":[],"categories_segments":[],"categories_sizes":[],"default_left":[0,0,0],"id":147,"left_children":[1,-1,-1],"loss_changes":[4.134913E-1,0E0,0E0],"parents":[2147483647,0,0],"right_children":[2,-1,-1],"split_conditions":[3.1597108E-1,1.55706275E-2,-1.5991395E-2],"split_indices":[870,0,0],"split_type":[0,0,0],"sum_hessian":[2.1511068E0,1.0902544E0,1.0608523E0],"tree_param":{"num_deleted":"0","num_feature":"1000","num_nodes":"3","size_leaf_vector":"1"}},{"base_weights":[-2.6226663E-3,1.5455863E-2,-1.5779018E-2],"categories":[],"categories_nodes":[],"categories_segments":[],"categories_sizes":[],"default_left":[0,0,0],"id":148,"left_children":[1,-1,-1],"loss_changes":[4.0300778E-1,0E0,0E0],"parents":[2147483647,0,0],"right_children":[2,-1,-1],"split_conditions":[3.3771306E-1,1.5455863E-2,-1.5779018E-2],"split_indices":[552,0,0],"split_type":[0,0,0],"sum_hessian":[2.1309147E0,1.0736821E0,1.0572327E0],"tree_param":{"num_deleted":"0","num_feature":"1000","num_nodes":"3","size_leaf_vector":"1"}},{"base_weights":[-2.6126865E-3,1.5876805E-2,-1.5303544E-2],"categories":[],"categories_nodes":[],"categories_segments":[],"categories_sizes":[],"default_left":[0,0,0],"id":149,"left_children":[1,-1,-1],"loss_changes":[3.99447E-1,0E0,0E0],"parents":[2147483647,0,0],"right_children":[2,-1,-1],"split_conditions":[5.537187E-2,1.5876805E-2,-1.5303544E-2],"split_indices":[639,0,0],"split_type":[0,0,0],"sum_hessian":[2.1111982E0,1.0047715E0,1.1064267E0],"tree_param":{"num_deleted":"0","num_feature":"1000","num_nodes":"3","size_leaf_vector":"1"}}]},"name":"gbtree"},"learner_model_param":{"base_score":"[5E-1]","boost_from_average":"1","num_class":"0","num_feature":"1000","num_target":"1"},"objective":{"name":"binary:logistic","reg_loss_param":{"scale_pos_weight":"1.85714293"}}},"version":[3,2,0]}